11986 10
54718 -1.287693 -0.457549 0.816586 -1.061394 -0.099797 0.186125 1.879170 -0.014625 -0.236186 0.155142
50562 -1.820249 -0.993110 0.505698 1.474537 -0.191900 -0.463596 0.389768 0.129305 -1.335909 0.146945
50441 -0.776198 0.511977 0.761470 0.821086 -0.656838 -0.961439 -0.352166 1.628757 -0.726838 0.168331
53468 -2.122033 0.481273 -0.193986 -0.453723 -0.336128 0.637193 1.227252 0.212706 -0.148385 1.007331
60826 0.082373 0.385479 2.030342 -1.239951 -0.754884 0.659674 1.193928 0.717306 -0.644385 0.701390
58549 -0.423342 -0.130295 -0.052795 -2.390321 -0.678009 -0.507102 0.553521 1.030827 -0.735071 0.151909
52914 -2.337961 -0.363506 -0.390701 -0.074041 -0.747201 -0.051564 -0.369387 0.617670 -0.417552 -0.308496
59784 -0.544617 -0.810402 1.311559 -0.366104 -1.103189 -0.897425 0.929225 0.371395 -1.161015 -0.887419
53643 -0.716711 0.031388 0.686295 -0.029834 0.212254 1.116250 0.171747 0.157489 -2.045272 0.736106
56777 -0.102219 -1.133231 0.096689 -0.103866 -1.410576 0.436326 -1.198216 0.917207 -1.560893 -0.141475
55106 -0.871392 -1.272677 -0.149017 -0.669878 -0.480859 0.522925 0.195107 1.180461 -0.657134 -1.433215
50621 -1.070599 -1.113590 0.065988 -0.135154 -0.587794 -0.547336 -1.075046 1.487835 0.164086 0.630745
54697 -1.349128 -1.024071 -0.032345 0.138402 -1.164720 1.755368 0.121141 0.345645 -0.464765 0.141251
51502 -1.051756 -0.095532 0.153055 -1.033667 0.136109 -0.235085 -0.266461 2.218582 0.125354 -0.277597
56011 -1.199722 0.396117 1.548489 0.256933 -1.283037 0.927856 0.425056 0.871294 -0.009736 -0.471742
71015 -0.185382 -2.282929 1.750321 -0.650979 -0.635899 -1.028135 0.404671 0.693897 -0.542328 1.327980
65088 0.420218 -0.359904 -0.221484 -0.641464 -1.165793 -0.116896 1.190811 1.174020 -0.882733 1.764487
53584 -1.412269 -0.662182 -0.964918 0.413191 -0.288901 0.924283 -0.235376 0.740852 -1.263127 0.706632
53529 -0.973951 -0.159836 -0.523598 -1.441663 0.012434 1.336565 -0.529072 1.618914 -0.555407 0.550936
67626 -0.365619 -1.133229 0.553176 -1.126436 -0.685591 -1.753201 1.423133 0.575837 -1.652564 0.504857
55851 -1.073926 -0.525629 1.283202 -0.546757 -1.411660 0.806440 -0.432342 0.082954 -0.041531 0.548607
56142 -0.043386 -0.039196 1.659867 -0.554123 -1.016380 0.248377 -0.633016 1.034263 -0.114200 0.257889
50255 -0.443370 -0.962557 0.683461 -0.150503 -0.042893 0.755428 0.253301 1.409745 0.737826 0.885007
56319 0.126284 0.230487 1.666348 -0.179092 -0.451824 1.008474 -0.209404 1.654484 -2.274278 -0.637571
57646 -1.118714 0.468143 -0.567859 -0.281619 -1.130330 0.458954 1.029335 0.322013 -1.985591 0.087396
59034 -1.468258 -0.545971 -0.029944 0.451645 -1.933128 -0.283434 1.407306 0.257874 -0.043690 0.057933
53459 -2.047979 -0.580553 -0.317188 0.066789 0.565556 1.432425 0.135173 1.573586 -1.084455 -0.375984
50939 -0.715065 -0.110651 1.230321 -0.429077 -0.933592 0.095150 0.141200 1.502966 0.908699 0.130421
54066 -1.115233 -1.341722 0.159894 -1.572220 -0.657409 0.207336 -0.936098 0.165203 -0.758946 0.730848
74134 -1.111411 -1.009558 0.659484 -0.190389 -0.878665 -0.933005 0.748998 0.181239 0.211246 1.531268
59471 -0.536744 -0.541147 -0.456494 -0.288606 -1.934907 -0.291845 0.665010 1.168717 -0.158302 -0.505964
50357 -0.988867 0.464728 0.171810 -0.826332 -0.665190 0.699452 0.236032 1.208275 0.473638 1.642406
50360 -1.704365 0.061028 0.308144 0.619341 0.178155 0.550787 -0.012476 0.954686 -0.432743 1.671542
52957 -2.028806 -0.967334 1.923091 0.260843 1.780223 0.278346 -0.479016 2.656039 -1.404350 0.156068
51307 -0.815151 -0.623040 0.025146 -0.316733 0.358523 -0.261521 0.561616 1.966849 0.168128 -0.385872
53980 -0.737683 -1.125792 -0.809201 -1.716793 -0.345664 0.805457 -0.796924 1.126341 -1.315492 0.114565
53653 -1.248906 -0.502512 -0.247887 -0.917706 0.595081 0.408572 -0.324363 0.742549 -1.154117 0.876440
52978 -2.006907 -0.120524 0.387308 -0.572991 0.026384 -0.309255 0.125112 0.769580 -0.861085 -0.812581
57446 0.525089 0.386846 0.741011 -0.757442 -1.835344 0.113317 -0.073836 1.039608 -1.960269 0.654253
54453 -1.808605 -0.956107 -0.032040 -0.634593 -0.760892 0.185966 -0.264734 -0.262693 -0.579637 0.487806
50204 -0.769466 0.877373 0.116687 -0.057864 -0.639476 0.782040 -0.429883 3.097582 -0.306776 1.987376
51743 -1.381371 -0.539117 0.542603 -0.606050 -0.277598 -1.275100 0.726748 1.188069 0.512021 0.113191
54738 -1.722491 -1.953238 0.751980 -0.964246 -0.016738 1.365744 -0.957044 1.354199 -0.200366 -0.655638
60359 -0.802410 -1.430776 -0.445724 -1.279754 -1.952590 -0.455730 1.581397 0.890040 -0.034577 -0.104073
52599 -2.643542 0.189121 1.399018 -0.723253 0.615674 -0.370311 -0.255264 0.977541 -0.468565 0.659830
58903 -1.102620 -0.433850 -0.659067 -0.774388 -2.125357 -0.698185 0.699857 0.656939 0.010246 0.117567
50247 -0.663347 -0.420379 0.361579 0.176139 0.177597 0.321886 -0.082302 1.180033 -0.088876 1.501803
66934 -0.422626 -0.393312 -0.645110 -0.587667 -0.450594 -1.599681 1.230549 1.374830 -1.826880 1.073369
52303 -2.052503 0.523323 0.886654 -1.001119 0.630055 -0.133232 1.320792 1.057548 -0.210629 -0.113365
66693 -0.184946 -1.069206 0.195625 0.307291 -1.294545 -1.733000 0.616868 0.961538 -1.248796 1.117753
50196 -0.755714 0.550254 -0.074353 0.112599 0.398714 0.902273 0.084666 2.565818 -1.004062 1.944805
61685 0.445342 -2.326653 1.112003 -0.493646 -1.425969 0.937249 0.642698 1.190681 -0.619585 -0.404954
62577 -0.097663 -0.427474 1.225054 0.624661 -1.508392 1.074960 2.126221 0.960209 -0.454457 0.834945
52236 -1.686356 0.526717 0.852971 -0.523748 0.484749 -0.494071 0.443849 1.414148 0.030042 0.482277
61625 -0.111651 -1.053492 0.197455 -0.799868 -1.480247 0.919852 1.557436 0.883996 -0.940923 -0.853589
52001 -2.156172 0.402669 0.940206 0.220974 0.922573 0.262353 1.160446 1.733927 0.185533 0.691526
54808 -3.449919 0.062544 0.395108 0.358921 -1.167418 1.956741 1.123006 0.222263 -1.240921 -0.308897
51826 -2.779807 0.030055 -0.199716 0.927505 -0.570514 0.362557 -0.067640 1.672256 0.045034 0.010697
59504 -0.798087 -0.410913 -0.193285 -0.894216 -1.543025 -0.392054 1.179793 1.528144 -1.263124 -1.650918
50469 -2.256890 -0.366290 -0.418254 0.566807 -0.131774 -0.483294 -0.574140 1.926508 -0.132762 1.531067
53948 -2.412649 -1.019954 0.280371 -0.202415 -0.079735 0.871518 -1.287852 0.516053 -1.528910 0.645770
50188 -1.164565 -0.214040 0.357993 0.249238 0.412217 0.412767 0.047342 1.187275 -0.126898 1.734603
54029 -2.505499 -0.328644 -0.581627 -0.748566 0.029923 0.687443 -0.758900 0.605661 -1.437188 1.475793
58110 -0.399053 0.142570 -0.221392 -1.686837 -1.322752 -0.326449 -0.026660 0.829916 -1.933508 -0.225967
63571 0.432527 -0.484975 0.591172 -0.375315 -0.388973 0.861814 2.254239 1.338710 -1.212435 0.332265
58500 -1.346097 1.218841 -0.607298 -0.655323 -1.770865 0.343754 0.399405 1.219037 -0.916718 0.126206
57535 -1.108722 0.533805 0.132852 -1.263478 -2.022676 0.530131 0.336250 -0.133039 -1.761355 0.667483
54269 -1.248128 -0.670912 0.000334 -1.019626 -0.363786 0.347977 -0.664507 0.037086 -1.277582 0.529422
51381 -1.863343 -1.203800 0.643332 0.618224 0.548255 0.062759 -0.694287 3.035269 0.084477 0.004445
53888 -2.213357 -0.137028 -0.517651 -0.163781 -0.095625 1.836728 0.404950 0.645271 -1.273393 0.823794
55114 -1.328336 -0.973857 1.672978 -0.778608 -0.299851 1.862571 -0.269302 1.052651 -0.511123 -0.497304
56344 -0.574652 0.031603 0.915588 -0.764782 -1.900033 0.843681 -0.727320 0.697903 -0.006111 0.936885
59230 -1.293702 -0.161491 0.142578 -1.055285 -2.718169 -0.497297 0.974095 1.214851 0.096876 -0.761801
59197 -0.717385 0.375655 -0.324394 -1.623480 -1.587510 0.140733 0.748327 1.516946 -0.054978 -0.132975
63764 0.380410 -0.889679 0.157903 -0.311397 -0.496215 0.371813 2.097313 1.173443 -1.095916 0.367500
50213 -0.876916 -0.658427 0.850558 0.977869 0.428966 0.563836 0.208531 1.793894 0.058377 1.618187
58580 -1.197674 0.727213 -0.079860 -1.729146 -1.758571 -0.426112 0.356464 1.050658 -0.958107 -0.420808
72969 -0.593147 -1.467347 1.167036 -1.140830 -1.375671 -0.484349 0.804391 0.401890 0.084264 2.345629
50605 -1.483959 -0.959568 -0.318769 1.116416 -0.655321 0.406107 -0.961042 2.090564 -0.121274 0.657746
56061 -1.698183 -0.349357 1.173949 -0.037859 -1.458653 1.301138 -1.060214 0.491080 -0.388958 0.694771
55313 -2.262028 -0.567067 1.074216 0.537452 -0.765960 1.707779 -0.565720 0.770665 -1.245530 -0.570152
53786 -1.038201 -0.496639 0.037796 -1.145816 0.552888 0.157741 -0.299518 0.470808 -1.251681 0.844866
57278 -0.675398 0.228441 1.109424 -0.257576 -1.828272 0.051286 -0.265181 0.028029 -1.418827 0.293205
51446 -1.936072 -0.685647 0.229053 0.736902 1.122851 -0.465118 0.272416 2.772262 -0.324358 0.708961
52703 -1.163365 -0.368860 1.712380 -0.281017 0.707224 -0.728307 0.700975 1.480825 -0.116314 0.013631
61930 0.012233 -0.755570 0.726028 -0.359853 -0.965938 1.189872 2.085658 1.218116 -0.805351 -0.701027
55220 -2.302865 -0.884116 1.657624 -0.544539 -0.642820 1.557290 0.138157 0.360438 -0.173089 -0.608848
58126 -0.728669 0.851517 0.534724 -1.239375 -1.327505 0.110102 0.295164 0.676759 -1.886899 -0.262988
61527 0.080111 -1.463535 -0.078997 -0.595513 -1.764488 0.859528 1.372219 0.688381 -0.717612 -0.263561
52998 -1.894964 -0.323669 0.761527 0.536641 0.462707 0.964812 0.047955 1.269370 -1.252948 -0.622975
50278 -0.752550 -0.737225 0.730447 1.126222 -0.132178 0.864784 -0.396376 1.791754 -0.066064 1.520566
57240 -1.632445 -0.206734 1.046553 -0.336482 -2.088125 -0.215614 0.044567 -0.575404 -0.898025 0.507359
51567 -2.440405 -0.532573 -0.058439 0.746730 0.254741 0.289746 0.503215 2.737573 0.469470 0.221759
50258 -1.402310 0.206396 1.253295 0.388803 -0.229167 0.235225 -1.087496 2.892075 -0.332821 2.662520
55955 -1.110215 -0.631611 1.697755 -0.441907 -1.077933 0.984310 -0.601329 0.139782 -0.242954 0.568122
55082 -3.085215 -0.807601 0.713357 -0.575461 0.121272 1.651712 -0.595899 1.237356 -0.117414 -0.001145
66316 -0.109449 -0.554115 -0.081267 -0.387131 -0.699531 -1.311501 1.990387 1.168273 -1.427755 1.019820
70279 -0.555868 -1.423058 0.996909 -0.979524 -0.350577 -1.339486 1.788098 0.567755 -0.692425 1.034711
54228 -1.875767 -0.447468 -0.299963 -1.354200 -0.090807 -0.135139 -0.937051 0.821402 -0.766934 0.957209
54000 -1.554774 -1.468185 -1.111800 -0.822840 -0.302955 1.200715 -1.186131 1.509245 -1.779767 0.109143
54501 -1.827684 -1.175128 -0.070135 -1.298648 -0.422103 0.578384 0.274041 -0.340571 -0.700813 0.677190
53953 -1.821940 -0.319369 0.307992 -1.139042 0.307490 0.767964 -1.173365 0.981158 -1.188190 0.701182
55704 -1.832666 -0.636120 0.606577 -0.311749 -0.986480 1.957024 -0.156264 1.224483 0.793612 0.822162
56869 -0.641291 0.511762 1.302387 -0.898646 -1.636508 0.409258 -0.780110 0.529567 -0.838039 0.924373
54664 -1.934856 -1.834392 0.849136 -1.071969 -0.064512 -0.021231 -0.867762 0.347933 -0.446638 0.000730
50365 -0.442696 -0.222985 0.368878 -0.673519 -0.799001 -0.450260 0.629790 1.279361 0.582460 1.388090
65899 0.178225 -0.618379 0.348610 -0.078609 -0.478755 -0.551928 2.229528 1.086184 -1.355371 1.508367
50287 -0.526249 -0.670136 0.539858 0.437982 0.203526 0.649934 0.256766 1.362236 0.035429 1.534514
58073 -1.309850 -0.004643 0.546751 -0.845520 -2.102769 -1.279711 0.054056 -0.165660 -1.224193 0.619377
50181 -1.099610 -0.490820 0.555197 0.348992 0.279216 0.183175 0.229736 1.017916 0.141155 1.670220
57052 -1.095996 0.663026 0.471188 0.028700 -2.232925 1.004840 -0.536285 0.401958 -1.044551 1.651521
63824 -0.130158 -0.743404 -0.730220 -0.292752 -0.227662 1.027910 2.056626 1.005624 -1.571961 0.954660
51655 -2.082798 -1.237894 -0.050760 -0.018321 0.299430 0.217198 -0.219163 1.878374 0.302898 -0.256977
50666 -1.043736 -0.599362 0.111654 -0.476258 -0.090107 -0.099229 0.777382 1.280300 0.810508 0.662833
51994 -1.739842 0.054590 0.321554 -0.428864 0.320427 -0.635850 0.626604 1.489364 0.122176 -0.078446
50548 -0.629431 -0.259905 -0.014635 -0.070815 -0.658205 -0.082666 0.371495 1.192941 0.503340 0.665011
68933 -0.827405 -1.321965 0.044114 -0.915480 -0.236694 -0.910517 0.883855 0.887178 -0.237076 2.220547
61803 0.283963 -1.983659 0.940250 0.312579 -1.160017 0.710693 1.649378 1.173031 -0.917512 -0.857939
50310 -1.176520 -1.259880 -0.142351 0.539765 0.032432 0.810853 -0.703375 1.620595 -0.286553 1.543517
53528 -2.280748 -0.358196 -0.758335 0.552318 0.311674 0.615517 -0.452568 1.558760 -2.100745 0.499212
51579 -2.165212 0.149046 -0.282864 0.165462 0.078960 0.074663 0.138660 3.565803 0.328197 0.537291
52393 -1.857973 0.534868 0.906751 -0.277157 0.485338 -0.339972 -0.477871 2.259258 -0.498204 0.115332
59377 -1.263566 -0.054727 0.880607 0.162070 -1.695375 -0.303732 1.216365 1.096608 0.553871 -0.453468
66036 0.476852 -1.142878 -1.041854 -0.983872 -2.275998 0.503280 0.732689 1.628502 -1.411511 1.749452
59164 -0.675986 0.255685 -0.490632 -1.934387 -2.500316 -0.464303 1.010138 1.280707 -0.791667 -0.095096
71483 -0.634134 -0.397849 1.286390 0.146141 -0.770725 -0.881069 0.979438 0.251704 -0.731576 1.994789
50518 -1.547191 -0.635322 0.051842 0.404166 -0.772142 0.157489 -0.685829 2.859071 0.875425 1.631920
53565 -1.894084 -0.330681 0.066357 -0.026335 0.257979 1.349347 -0.882839 1.616938 -1.803972 -0.190790
53754 -0.899693 -0.734825 0.994332 -1.709486 0.573623 -0.340825 -0.841386 0.802260 -1.421346 0.289022
50449 -0.890208 -0.774370 0.144376 -0.132440 0.038657 0.101003 0.059152 1.264471 0.485059 0.791735
54699 -1.680956 -1.143531 0.703417 -1.551492 -0.268249 0.335720 -0.790074 0.269000 -0.669071 -0.029601
54552 -2.161968 -1.346594 0.193997 -0.791071 -0.387660 0.401781 0.163412 -0.193062 -0.697506 -0.161380
52022 -2.570162 0.484141 1.601453 0.682140 0.588979 0.063382 0.320423 2.672692 0.090252 0.682696
57468 -1.664029 0.565940 0.878281 -1.442126 -2.687847 0.375615 -1.634050 0.728982 -1.672069 0.671107
55471 -1.448801 -1.208909 1.555026 -0.659649 -0.946648 2.008602 -0.724308 0.938247 -0.187372 -0.159052
55321 -1.516993 -1.786895 1.251056 -0.134131 -0.904892 0.842853 -0.482701 0.343855 -0.404369 -0.614732
57492 -2.549239 1.496440 1.314283 -0.018994 -1.936546 0.260176 0.029128 0.182297 -1.590356 0.847081
52044 -3.238002 0.594491 0.147013 0.567799 0.069813 0.150650 0.331227 1.975780 -0.178365 0.444876
54969 -1.656448 -0.937673 0.318621 -0.809088 -0.873525 2.097594 -0.472911 0.968272 -0.153002 0.026956
58551 -1.967071 0.817351 -0.507201 -1.661053 -2.131391 -0.358543 0.028761 0.980193 -0.791374 0.138552
54894 -2.799768 -1.674654 0.759038 -0.757736 -0.344257 1.585145 0.329785 0.076682 -0.604205 -0.281386
54490 -2.624443 -1.263245 -0.015247 -1.852820 -0.323875 0.549895 -0.203620 0.262522 -0.330087 0.450893
57659 -1.794345 1.175390 0.934169 -0.278905 -1.705915 0.134482 0.686007 -0.183217 -1.490030 1.381670
53803 -0.719081 -0.949110 0.516258 -1.403944 0.379010 0.693825 -1.241214 1.696370 -1.532279 -0.417268
54477 -4.208264 -1.555218 -0.100354 -0.476686 -0.116245 -0.081125 -0.762571 0.438284 -0.812161 1.216383
65833 0.954557 -1.539304 -0.042134 -1.339568 -0.718593 -0.734651 2.358499 2.654030 -1.032526 1.388695
65650 -0.247141 -0.788099 -0.697467 -0.652415 -1.254944 -0.321685 2.290917 1.059468 -0.916113 1.208317
63260 -0.597868 -0.311528 -0.443174 0.108767 -0.296689 1.507432 2.746951 1.980214 -1.196668 -0.233795
54262 -2.168895 -0.984630 -0.325434 -1.203904 -0.158063 0.227800 0.389295 -0.043890 -0.427118 1.109095
62016 0.056686 -0.293786 0.751118 -0.962765 -0.942021 1.838812 2.293866 1.772997 -1.319882 -0.859262
52803 -1.337365 0.150308 2.214611 -0.506998 0.684877 -0.226194 -0.059544 1.110755 -0.776964 0.268359
66871 -0.637673 -1.004055 -0.902484 -1.174778 0.144387 -0.995985 2.312667 1.548314 -2.464195 1.029023
57776 -2.220496 1.492226 0.481070 -0.821198 -1.479569 -0.100903 0.007818 0.285533 -1.904205 0.849467
64918 0.669223 -1.261112 0.783337 -0.003528 -0.282814 1.151229 1.871482 1.370146 -0.682355 1.306670
56378 -2.100224 0.390764 0.928234 0.793342 -1.681574 2.195731 -1.129650 1.375195 -1.227358 1.291639
53183 -1.479219 -0.249162 -0.062352 0.560884 0.224063 -0.330747 0.723520 0.812210 -1.149646 -0.202741
69693 -0.283134 -1.321352 0.826564 -0.435933 0.335917 -0.697494 1.304395 0.861072 -0.911632 0.120755
50294 -0.527260 -0.608478 0.418642 0.914100 -0.084422 0.212999 -0.032735 1.727508 -0.360934 2.142610
67505 -0.228751 -0.983859 1.733639 -1.280852 -0.380224 -1.035227 2.142342 0.395464 -2.012471 1.471405
64615 -0.795474 -1.256160 -0.020488 0.341398 -0.292623 0.904049 2.569432 0.509990 -1.509336 1.761326
54685 -3.016083 -2.091208 0.208630 -0.616629 -0.305257 0.858072 -0.763920 0.374682 -0.455396 0.345930
51827 -3.019848 0.013105 0.217089 0.747663 0.137817 0.560296 0.674126 1.737821 0.257004 0.428666
51196 -1.835465 -0.765512 0.166208 0.908719 0.437930 -1.162215 -0.165200 2.417991 -0.464679 1.094573
66050 0.033554 -1.619605 -0.025505 -0.865125 -0.346794 -0.720208 1.653671 1.476578 -0.484997 2.094084
75314 -1.379697 -1.577697 0.573795 0.118833 -2.589502 -1.126149 0.723409 0.326228 0.006211 1.818766
57362 -1.364052 1.292656 1.641136 0.903742 -1.640585 0.325466 -0.533563 1.097992 -1.949334 0.524124
50332 -0.800526 -0.876139 0.815586 1.055888 -0.129386 0.701192 -0.654976 1.582633 -0.292767 1.896641
53334 -1.669353 -0.503268 0.374768 -0.893617 1.129727 -0.102467 -0.344859 1.448918 -1.608817 -0.374197
56917 -1.852749 -0.901254 0.718287 1.111055 -2.352216 0.927188 -1.449781 0.757025 -2.377713 0.170887
60064 -0.591909 -0.702058 0.297974 -1.022382 -1.410882 -0.805581 1.184240 1.699756 -0.312448 -1.352421
50321 -0.859921 -0.900207 0.108256 1.049947 0.091461 0.300584 -0.701404 1.805498 -0.889406 1.993763
66908 -0.231502 -0.420388 -0.550027 -1.522747 -0.250202 -1.309754 1.446660 1.440853 -2.760297 1.383132
56903 -1.454369 -0.971074 0.346917 1.173691 -2.011984 1.064887 -1.255069 1.064258 -1.757687 -0.264332
61990 0.184533 -1.280477 1.334729 -1.934093 -1.275632 2.435852 2.059237 2.238467 -0.694312 -0.716771
64901 0.903191 -0.667706 -1.131544 -0.703174 -0.965361 1.049415 2.295592 3.001028 -1.589732 1.639868
62036 -0.001584 -0.615694 0.692277 -1.655339 -1.041308 2.647851 2.406790 2.205621 -1.030096 -0.418365
58123 -1.689085 1.527075 0.744678 -1.483203 -1.998925 -0.475344 0.084806 0.976553 -1.265621 0.169511
55916 -1.276291 -0.530252 1.743227 -0.908317 -1.258009 2.139434 -0.056391 0.166142 -0.861841 0.242503
55767 -2.934105 -1.265898 1.906208 0.593333 -0.838749 1.736535 -1.114866 1.186000 -0.246163 0.178268
67150 -0.663602 -0.410664 0.729505 -1.536029 -0.161686 -0.705470 2.512302 0.688338 -2.094617 2.384967
52190 -1.818787 0.831467 0.370548 0.333563 0.697944 -1.126965 0.687414 2.236880 -1.502874 0.595592
57684 -0.821110 0.479954 0.329062 -1.319569 -2.042351 -0.406334 -0.725443 0.799218 -1.943105 0.134732
50947 -1.767164 -0.459367 -0.520879 0.699344 -0.124428 -0.619105 0.066957 2.212602 0.318970 1.050052
62305 0.086710 -2.272033 1.141144 -0.965748 -0.495880 1.323094 2.186996 1.844147 -2.051579 -1.570304
53864 -2.398907 -0.995807 -0.069895 -0.221959 0.388383 1.013715 -1.779259 1.696393 -1.702833 1.188564
68764 -0.569252 -0.712673 0.869920 -0.166129 -0.397800 -1.236492 1.324659 0.917994 -0.642034 2.477657
66575 0.048294 0.157483 -0.922397 -1.136168 -0.265718 -0.695312 1.331126 2.006235 -2.004628 1.498468
52616 -3.020819 0.202096 2.226726 0.251825 1.646018 -0.545034 -0.002527 2.234470 -1.521049 1.301902
63062 0.163906 -0.046117 1.486895 -1.256458 0.088453 1.560144 2.396608 2.020653 -1.053547 0.271346
54034 -2.139378 -0.844195 0.030945 -1.490204 0.107466 0.560886 -0.249442 0.056711 -1.709285 0.198541
64625 0.626138 -1.278303 0.153888 0.123180 -0.106668 1.253241 2.911419 2.552689 -1.305226 0.842234
53537 -0.968522 -0.569946 0.494252 -1.099942 1.116125 0.210008 0.301632 0.726910 -1.259203 0.594912
64695 -0.139143 -0.567662 -0.324211 -0.217028 -0.704378 -0.093921 2.378532 1.485632 -1.947810 -0.220824
59522 -0.680098 0.132983 -0.687687 -1.230855 -2.318315 0.660183 1.279029 1.668973 -0.290227 -0.521573
65197 0.553693 -1.496785 0.486559 0.643739 -0.985279 -0.249228 1.196694 1.043042 -1.489346 1.393983
56490 -0.409522 -1.085996 0.784233 0.616178 -1.920634 0.405596 -0.581821 0.472502 -0.603261 0.570891
55024 -1.280138 -1.188937 2.154418 -1.621277 -1.220397 0.919281 -0.311823 -0.022759 -0.602778 -0.011929
53187 -2.452180 0.046415 0.471941 0.885167 1.064563 -0.196902 -0.009700 2.575658 -3.231426 -0.554061
70637 -0.054417 -1.414113 0.887967 -1.319178 0.243452 -0.702950 0.275991 1.288401 -0.381989 1.557612
52432 -2.975348 0.940696 1.318615 -0.963176 0.943720 -1.029165 -0.153672 3.177022 -0.322279 1.038469
60898 -0.450713 -1.572742 2.085619 -2.381902 -1.988149 -0.034813 2.420743 1.366262 -0.912464 -1.105368
63451 0.049787 -1.655256 -0.347042 -0.333890 -0.507587 2.078863 2.258506 1.730375 -1.354415 0.066055
56802 -1.703221 0.737968 1.078568 -0.848549 -1.630694 0.151964 -1.302839 0.862832 -0.422976 1.485352
54545 -3.414100 -2.338109 0.393953 -2.153147 -0.252691 0.394582 -0.271346 0.317115 0.254676 0.890152
62665 -0.105769 -1.247526 0.354936 -0.631866 -1.453769 0.298063 1.765181 1.154053 -1.908194 -1.300370
54951 -2.696523 -1.692636 1.338276 -0.443307 -0.213547 1.373468 0.511257 -0.037231 -0.702685 -0.418004
59443 -1.038307 -0.872571 -1.244238 -0.474329 -2.322601 0.206880 1.552748 0.851978 -0.500957 0.458449
58138 -2.289403 1.029509 0.698549 -0.306033 -1.592884 -0.188873 0.741391 0.240592 -1.082244 -0.208685
65384 -0.028104 -1.979747 -0.929195 -2.030667 -1.064528 0.178421 3.866271 2.624743 -1.466139 0.846892
59244 -0.645463 0.403345 1.179127 -0.336644 -1.848580 0.560161 0.007740 1.305792 0.413107 0.070339
60827 -1.217688 -0.873845 2.235710 -1.197082 -2.074855 -0.030238 2.692595 1.137926 -0.481948 -1.390085
67353 -0.744806 -1.843018 0.173831 -0.724636 0.056610 -0.936977 2.537221 0.699472 -2.653763 1.343606
52907 -3.363506 0.113134 0.321907 -0.765456 1.122741 -0.393919 0.369763 1.407575 -1.367322 0.083943
63802 -0.007180 -0.226653 0.615884 -0.286115 -1.026308 1.023699 3.294350 1.104450 -2.115052 0.633380
63441 0.417086 -1.516997 0.130325 -0.802534 -1.183471 0.869731 1.137407 0.449406 -2.265325 0.231226
61786 -0.521219 -0.755389 0.320491 -0.824082 -2.351075 2.122413 2.367022 0.888091 -0.617012 0.296767
55965 -2.688762 -0.452334 1.583886 -0.131280 -0.985530 2.036728 -1.606105 1.211691 -0.590347 0.709558
52855 -3.420006 -0.460058 1.653764 0.351827 0.680879 -1.780176 -0.761749 2.227140 -1.533514 0.188511
50430 -1.870920 -0.624912 -0.238008 1.005275 0.212381 0.005443 0.430030 1.408185 -0.139778 2.256986
54836 -2.152937 -2.116055 1.580185 -1.219115 -0.339725 0.434977 0.283606 -0.134691 -1.000908 -0.976707
73752 -0.569091 -0.994393 1.667493 -0.890546 -1.115170 -0.353638 1.265691 0.118631 -0.066226 1.387159
54478 -3.426518 -1.323752 0.418763 -1.401173 0.154109 0.259060 -0.368161 0.181430 -0.362805 1.480943
52659 -2.440549 1.170720 2.215951 0.485844 0.089176 -0.307191 -0.093651 1.574595 -1.021955 0.424258
58443 -1.821117 0.040297 -0.040748 -2.049483 -2.315225 -0.941859 0.987577 -0.108257 -0.680643 1.267249
57404 -2.270381 0.878811 1.022622 0.682284 -2.088293 -0.143482 -0.365129 0.661171 -1.290648 0.091810
50775 -0.836556 -0.868190 -0.098478 0.776497 -0.472114 -0.876345 -1.227839 3.441099 -0.964747 1.224130
57112 -2.118889 -0.490924 1.219717 1.196807 -3.044175 0.272221 -1.049919 1.076071 -1.106509 -0.295022
57344 -0.191301 1.321769 1.873986 -1.514507 -2.002519 0.964438 -0.892413 1.471166 -2.045164 0.911475
73098 -0.820170 -1.955512 1.262858 -1.991941 -1.586612 -1.067583 1.675512 1.168534 0.558763 1.521353
63225 -0.340666 0.045659 1.954049 -0.710641 -0.514465 1.869245 3.389702 2.070908 -1.039213 0.038877
67737 0.123536 -0.900323 0.933556 -0.967794 -0.538890 -1.891593 0.460774 1.169425 -1.390026 1.591715
50252 -0.480694 -0.718878 1.139616 0.907194 -0.254974 0.448476 -0.558291 2.606645 -0.546559 2.936595
58970 -2.472210 -0.193140 -1.008746 -0.394090 -3.363012 0.355191 1.312176 0.934022 0.164973 0.536815
50582 -1.274380 -0.422324 -0.739775 0.029607 -0.126463 0.159249 0.672032 1.665847 0.392606 1.268388
54348 -3.076225 -2.230192 0.297603 -1.237797 -0.072503 -0.207627 -1.855873 0.635161 -1.447882 1.062155
61148 0.244085 -0.693700 -0.682392 -1.085848 -2.713571 0.220257 1.398605 1.499460 -0.629080 0.931065
62789 -1.033470 -1.735969 -0.623159 0.689342 -1.663343 0.909573 1.921298 0.789449 -1.250541 -0.702114
61339 -0.844457 -1.786858 1.118717 -0.788345 -2.453468 1.954571 2.166236 0.798938 -1.540560 -1.616661
67242 0.119831 -0.893932 0.351129 0.364107 -0.565695 -0.592464 1.023848 0.562732 -1.331538 1.286611
51264 -1.640481 -0.686748 0.289124 0.001528 0.482382 -0.248854 0.389462 1.151512 0.484731 1.487448
60752 -0.099828 -0.925981 -0.734910 -0.726256 -2.560023 0.873154 1.210625 1.223500 -0.796120 0.040300
62477 0.407962 -0.324575 0.761609 0.168394 -1.004558 1.349671 0.904652 2.094391 -1.316044 -0.766388
50235 -0.560749 -0.055031 0.466597 0.487804 0.304440 0.662388 0.115675 1.721357 -0.390570 1.673392
67904 -0.507988 -1.786340 1.608623 -1.156603 0.781774 -0.880150 1.275592 0.677058 -3.548589 1.896531
73297 -1.651988 -1.246867 1.846313 0.744096 -1.894336 -2.286716 1.269971 1.170014 0.059985 1.763874
63470 0.331675 0.246887 0.029745 -0.939617 -0.605133 1.494278 2.522358 3.103645 -1.723880 -0.381104
53132 -2.099455 0.910421 0.563628 -0.776132 0.506442 1.184712 0.402227 1.625013 -1.000592 -0.442924
57013 -0.210651 -0.615578 2.003976 -0.924903 -2.385713 -0.207631 -1.498207 0.343552 -2.741853 0.630708
55754 -1.671312 -1.377140 1.539401 -0.584053 -1.846304 2.106740 -1.438544 1.789063 0.017503 -0.364154
52036 -1.799346 0.487604 1.088818 -0.567557 0.252381 -0.014322 0.211526 1.618526 0.567035 0.499496
54583 -1.583325 -1.438872 -0.153067 -2.095537 -0.162741 0.598240 -0.879632 0.843732 -1.090869 -0.151356
66444 -0.523871 -0.383724 -0.913396 -1.725237 -0.329129 -0.460115 2.925509 1.794073 -2.509050 2.281568
64378 0.291272 -0.583142 -0.601536 -0.053243 -0.444390 1.010273 1.955886 2.763244 -0.680581 0.488562
52516 -2.760811 0.313100 1.556978 0.846935 0.886980 0.904932 -0.337863 2.118953 -1.227046 0.471494
61235 0.321692 -0.623789 -0.002317 -0.467976 -2.168103 0.231786 0.754321 2.305829 0.189011 -0.370992
65841 0.499614 -1.011448 0.007167 -1.232238 -1.176307 -0.411427 2.499029 2.212510 -0.529269 1.870865
53438 -3.477533 -0.267861 -0.066143 0.317518 1.389708 1.107041 1.330717 1.225075 -2.326042 0.285105
57940 -1.204204 -0.184452 0.835959 -1.465644 -2.344811 -0.659481 0.811045 -0.532080 -1.064094 1.358304
60035 -1.388452 -1.192205 -0.528629 0.289338 -1.310052 0.420372 0.838153 1.016447 -0.362679 -1.115192
51102 -1.098793 -1.213759 0.697458 0.139428 0.096952 -1.037420 0.150095 1.919427 0.455483 -0.073598
57883 -2.610869 1.343038 -0.237572 -0.338264 -2.191708 0.014695 0.089525 0.253917 -3.308720 1.124787
73393 -0.830598 -1.677816 2.036438 0.181485 -0.574819 0.799946 1.044827 -0.105906 -0.420133 1.616705
72065 -0.399187 -1.940554 2.569374 0.039685 -0.807309 0.127564 1.801480 0.908190 0.236770 1.053878
56803 -0.752998 -0.415001 0.401787 0.233564 -1.902928 0.178020 -0.619520 0.368109 -0.315906 1.293035
50312 -0.513235 0.617930 -0.275925 -0.125422 -0.050219 0.866629 0.094088 2.259518 -0.775570 1.415759
63000 -0.037191 -1.476420 0.854600 -2.345981 -0.222041 2.882023 3.012052 3.002607 -0.978241 -0.107446
57523 -1.399222 0.827770 0.090977 -0.659296 -1.796914 0.679710 -1.321826 1.649794 -1.242177 0.123657
60960 0.342940 -0.614593 3.528492 -0.585000 -2.460717 -0.168788 2.085009 2.419120 -1.407475 -1.342060
65421 -0.003993 -1.634085 -0.738060 0.594709 -0.665318 0.214272 1.436315 1.400601 -1.048517 1.654379
52374 -2.242441 0.742818 1.340193 0.278559 -0.065151 0.342083 -0.123076 1.571273 -0.051001 0.311207
55076 -3.264727 -0.577774 0.668175 -1.235592 -0.438620 2.279695 -0.291371 1.022062 -0.436227 -0.368253
71390 0.087825 -2.338272 1.965263 -2.186475 0.040725 0.270876 1.715683 1.533172 -0.127965 1.616692
59493 -2.538830 -1.892602 -0.423898 0.176924 -2.707102 -0.869842 0.922104 1.338875 -1.443442 -2.354950
53196 -1.091946 -0.037771 1.088313 -0.647741 0.613411 -0.327307 0.029920 1.245703 -1.165721 -0.696975
56955 -2.490097 -0.047993 1.000197 1.529755 -2.812698 -0.000348 -1.728126 1.128999 -1.831005 1.276507
56062 -1.079091 -0.747517 1.850698 -1.828161 -1.570267 0.725816 -0.760471 0.360050 -0.099615 0.346812
60221 -1.151576 -0.086178 -0.333004 -0.166011 -1.697035 0.239109 1.726291 2.587274 0.399172 -1.335843
57299 -0.572922 -0.509372 1.524911 -1.448166 -2.782044 -1.068342 -1.306119 1.071252 -1.156094 0.163342
66927 -1.489079 -0.982588 -1.106542 -2.097856 -0.480445 -1.497697 2.900123 1.496703 -2.097964 1.607179
50733 -0.887233 -1.220581 -0.106227 0.875332 -0.589982 -0.468238 0.537882 1.315399 0.249512 0.392595
52014 -3.673766 0.234189 0.733877 0.845623 0.187871 -0.050705 1.224304 1.369715 0.071260 0.874032
59570 -2.734873 -1.467587 -0.706336 -1.438663 -2.920314 -0.043709 1.891913 1.853047 0.112788 -2.002728
57987 -2.215608 1.956654 -0.561400 -0.276506 -1.738289 0.518006 0.180471 1.263383 -1.637914 1.467802
54328 -1.471082 -1.024655 0.492902 -1.580969 -0.297928 1.008990 0.966815 -0.229886 -0.799618 0.330007
62875 0.802424 -1.827992 1.674748 -2.424364 -0.831180 1.205377 2.730793 2.252915 -2.763254 -0.935586
52406 -3.027781 0.859455 2.327855 0.512350 0.916205 -1.351177 0.482263 2.662869 -1.203187 0.982294
53297 -2.351121 -1.220180 0.739920 -0.054270 1.716845 -0.302457 -0.799008 2.707203 -1.787532 -0.171189
50418 -0.866162 -1.784206 0.171412 0.759652 -0.009712 0.741150 -0.395310 1.460499 0.039296 0.606606
60890 -0.741840 -0.729137 1.868548 -1.902591 -2.673646 0.579359 3.106086 0.949837 -0.712913 -0.481092
70880 0.266638 -0.843448 3.467589 -0.604546 -1.068469 -2.133189 0.921775 2.158776 -1.897207 2.255257
51818 -2.432667 0.032669 -0.485117 0.449877 0.359523 0.534404 0.122043 1.797957 -0.546045 0.656169
66114 0.586669 -1.517127 -0.524047 -0.321349 -1.299597 -0.472007 1.133903 1.702937 -1.472438 0.728720
61831 0.375451 -0.677758 1.483865 -1.959614 -1.486912 0.899283 2.172429 1.791220 -1.258936 -0.725545
69496 -1.352224 -2.580598 1.638530 -2.838941 0.289122 -1.350072 2.721593 1.039760 -1.318652 1.241308
51377 -1.265693 -0.716266 -0.354481 -1.061947 0.063784 -0.442921 0.592668 1.971596 0.384437 -0.336214
53695 -2.659784 -0.602882 -0.282605 -0.748479 0.797587 0.609315 -1.352327 1.953705 -1.910650 0.577369
52068 -3.744148 1.287032 0.086582 0.057722 -0.269425 -1.092445 1.754008 2.824913 -0.013661 -0.035288
55638 -0.961450 -0.661044 0.717498 -1.287346 -1.381214 1.493083 0.095280 0.291030 -0.300270 -0.088316
66160 -0.552569 -0.928410 -1.813397 -0.802826 -0.752817 0.037809 1.496036 1.587499 -1.530495 0.627631
52547 -3.096032 0.663522 1.312404 -0.267420 0.559191 -0.373320 -0.613445 1.760159 -0.759106 1.024363
57357 -1.251641 1.098834 2.120211 -1.527349 -1.961217 1.112818 0.578954 -0.041458 -1.655510 1.599290
55518 -1.668525 -1.159721 1.739721 -0.315285 -0.594770 1.781540 -1.269189 1.198933 -0.270039 0.139911
54531 -3.519892 -1.920860 -0.173956 -0.578659 -0.128769 0.901117 -0.930266 0.744080 -0.753725 0.531964
52799 -2.984404 0.712468 0.489280 -0.326761 0.375630 0.751485 0.562343 1.528094 -0.558842 -0.238192
58209 -3.434273 1.490201 -0.086534 -1.665816 -2.157150 0.259893 1.826828 0.389387 -1.518252 0.477215
50306 -0.691175 -0.339127 0.568260 1.104890 -0.406961 0.355539 -0.674808 2.516271 -1.041757 2.865640
58022 -2.091640 0.909939 0.005415 -2.183031 -2.090765 0.348706 0.365068 -0.021919 -2.485777 0.686371
58136 -2.533667 1.006553 0.020646 -0.798657 -1.800584 0.059064 0.005837 1.365201 -2.993502 -1.441824
54511 -4.121071 -1.637715 -0.679224 -1.039654 -0.635235 0.818190 -0.118397 0.424121 -0.277061 1.392317
57872 -2.496592 2.069997 1.830893 0.477716 -2.800496 -0.748860 -0.228496 1.504206 -2.623417 -0.080473
58932 -2.078928 -0.426521 0.569784 -1.458958 -3.264445 -1.769002 -0.498523 1.796461 -1.048314 -1.380108
58526 -1.665676 0.604498 0.133307 -0.168951 -1.745632 -0.358235 0.161817 1.818474 -1.281581 -1.756144
56547 -0.880346 0.733595 1.534211 -1.735532 -1.452837 0.993689 -1.499820 1.301079 -0.694381 1.415758
67273 -0.455324 -3.070202 1.053087 -1.372674 0.387802 -1.967541 2.857357 1.721089 -3.178385 3.216277
58508 -1.201700 0.925028 1.279662 -1.099885 -3.136476 0.649138 -0.318000 1.076975 -0.355628 0.636840
55860 -2.294328 -0.544914 0.668204 -0.032792 -2.018510 2.242363 -0.741594 0.231345 -0.829945 0.671344
69486 -1.590194 -0.834867 0.829479 -0.373116 0.167968 -0.561676 1.703007 0.223629 -0.261443 0.563920
58115 -1.453544 0.465354 -1.061793 -0.929252 -2.251482 0.597615 -0.197184 1.312686 -1.776545 -0.448880
54804 -1.982696 -1.803892 0.284136 -2.572106 -0.978272 0.377671 -0.613684 0.840412 -0.532177 -0.899616
53381 -1.381864 -0.289896 0.485810 -0.711682 1.009269 0.646752 0.125739 1.172896 -1.091095 -0.306394
59286 -1.760052 -0.088601 0.741753 -1.182562 -2.778879 0.201609 1.897950 1.213369 0.155868 -1.002361
58860 -2.505512 0.951630 -1.496794 -2.760617 -2.711337 -0.377871 1.425529 2.074365 -0.375473 0.853679
53314 -1.041240 -0.151364 0.108346 -0.292244 0.451752 0.110714 -0.453837 1.757149 -1.252218 -0.506467
61212 -1.109850 -0.811105 2.399358 -1.854056 -3.104403 1.591743 3.295457 0.437020 -0.950903 -0.128692
54337 -1.319548 -1.688096 1.652666 -1.633173 0.347503 0.348512 -0.636625 0.292855 -1.578482 -0.231129
51342 -1.924330 -1.268638 0.160131 -0.029963 0.525486 -0.775945 -1.056391 3.673768 -0.034704 1.521505
54577 -3.303576 -1.508670 -0.117994 -1.609799 -0.402106 1.237442 -0.478702 0.310734 -0.443443 1.115212
58000 -2.944884 1.054140 0.062195 -1.703497 -2.250368 0.708337 0.210675 -0.034396 -2.001461 0.525955
58782 -0.853447 1.639527 -0.801184 -3.139723 -2.034451 0.495721 0.708724 2.839902 -1.804919 0.474823
64588 -0.462876 -1.373021 -0.658370 0.479342 -1.578358 1.223644 1.826871 0.618055 -1.081361 1.148305
64412 -1.039822 -2.214695 -0.973205 -0.434096 -0.423674 1.635628 3.707438 1.909236 -1.466016 0.138438
56915 -0.283869 0.933739 0.235990 -0.117864 -1.653185 0.702970 -0.904658 2.519098 -2.211724 -0.274723
67902 0.201118 -1.454746 1.620455 0.597288 -0.968268 0.071224 1.247146 0.243416 -1.811116 0.598786
52527 -2.025952 0.125430 1.201383 -1.110902 0.393146 -1.635853 0.345338 1.484835 -0.636699 -0.446201
60438 -1.444255 -2.147539 0.797025 -1.316382 -1.655164 -0.772748 1.102948 1.857296 0.854231 -1.525226
52564 -2.826505 1.159420 1.073037 -1.047691 0.156184 -0.853075 -0.485379 1.938405 -0.508594 1.045804
70892 -0.012142 -2.642365 2.260688 -0.726932 -0.565658 -0.571530 2.638979 1.005586 -0.892435 0.900119
50185 -0.575111 -0.628290 0.411596 0.481682 0.306074 0.634139 -0.092033 1.399550 -0.214752 1.829991
52658 -3.417637 0.833002 0.769451 -1.369679 1.328282 -0.435253 0.552381 2.387548 -0.694609 0.484709
52491 -2.738278 0.014346 1.572252 -0.102559 1.419091 0.825960 -0.364500 2.154645 -0.610483 1.443139
65658 -0.248529 -1.138651 -0.704717 -2.693087 -1.414015 -0.298632 3.996110 2.816965 -1.477096 2.296967
59717 -1.944230 -1.326732 -0.072761 -0.464096 -3.506271 -0.161765 1.225725 1.072290 -0.763433 -1.742565
50197 -1.250578 -0.557495 0.346902 0.778087 0.549294 0.365898 0.592625 1.153055 -0.326384 1.982427
55003 -1.186804 -1.388795 0.223447 -2.033210 -1.132479 1.681436 -0.962008 0.981963 -0.519617 0.028853
63608 0.115742 -0.556055 1.330829 0.259017 -0.494310 2.111414 2.740761 0.843353 -3.912871 0.805006
59328 -0.973673 0.254704 -0.014943 -0.776539 -3.293266 -0.781525 0.386459 3.302040 0.280035 -0.820806
70795 -0.953097 -2.665601 1.096626 -0.327066 -0.319290 0.277755 1.941230 0.125839 -0.413264 1.118810
51449 -1.379630 -0.786004 -0.730151 0.206914 -0.476490 0.338969 -0.341669 1.800040 -0.113383 -0.264378
58322 -0.640325 1.338766 0.407917 -2.471053 -1.409041 -0.154996 0.200744 1.274150 -1.449127 1.278031
55724 -1.768126 -1.808118 1.288235 -1.500226 -1.676975 1.565677 -2.016002 2.154176 0.338330 0.107851
70847 -0.680328 -3.811744 2.431486 -3.005880 -0.228996 -0.801573 3.016957 1.632324 -0.767882 1.490425
52462 -2.163584 -0.102917 2.004858 -0.327304 0.620769 -1.772973 -0.093302 1.286555 -0.541684 1.613073
52000 -3.231759 0.577424 0.240764 0.471414 -0.313646 0.013747 0.281059 1.977112 -0.040763 -0.086459
50701 -0.781879 -1.021616 0.792454 1.200931 -0.180397 -0.720919 -1.459565 3.559648 -1.070715 0.968696
58626 -2.499407 0.566094 1.074206 -2.294904 -2.199853 -0.236821 0.710618 1.135097 0.837630 0.105599
64494 1.065084 -1.386896 0.803009 -0.670837 0.139793 1.286762 1.888319 1.945711 -2.053567 1.457422
59099 -1.413987 1.460309 0.180054 -3.483895 -2.419024 -0.180482 1.754305 2.636324 -1.164035 -0.309403
56099 -1.854441 -0.177223 1.154007 0.204395 -1.714050 2.628034 -0.288272 0.696057 -0.732269 1.078017
55989 -2.128972 -0.974990 0.177423 -0.219156 -1.527519 1.551079 -0.855098 0.965102 -0.049665 0.085068
58317 -3.734612 1.106924 -0.243111 -2.622100 -2.441555 -0.282761 1.884792 0.381608 -1.335124 1.048483
52092 -2.781977 1.192782 1.276415 1.473588 -0.080882 -0.548436 1.088261 2.500453 -0.471538 0.879290
59902 -2.500301 -1.054151 -0.322823 -0.976414 -3.319479 -0.378996 2.557827 0.623380 -0.202343 -1.162626
57474 -2.054901 1.195931 0.161955 -0.446705 -2.219037 1.446814 -1.156696 1.337263 -1.893948 0.528684
53992 -1.283626 -0.630634 0.040645 -1.967923 0.341159 0.130851 -0.468027 0.712198 -1.252806 0.023360
64242 0.251198 -2.116296 0.113066 -0.480174 -0.882652 2.425003 4.013409 1.922053 -2.309987 2.181690
50803 -1.742795 -1.304684 0.257987 0.202853 -0.217452 0.896105 -0.168560 1.660493 1.042390 0.729142
64860 -0.095235 -0.689067 -0.774891 -0.015621 -1.885724 -0.062924 2.006531 1.563136 -0.861458 2.137856
57426 -1.613630 1.330298 2.365290 -0.116841 -1.187435 1.025253 0.623827 0.088409 -2.952369 0.404978
68046 -0.166534 -2.691370 1.558414 0.575840 -0.314202 -1.684756 1.456046 1.236879 -2.642535 0.899302
59455 -1.748295 -1.028488 -0.287275 -0.493108 -2.221104 -0.729522 0.146893 0.693459 -0.855964 -1.063019
60410 -0.756913 -0.172117 0.668927 0.143153 -2.295187 0.924563 1.395769 1.285447 -0.314513 -0.731608
72002 -0.971400 -2.319362 4.844913 -1.716411 -0.795381 0.622047 3.157043 1.341277 -0.370714 3.050453
59218 -1.084692 0.517051 0.041709 -2.026622 -2.738484 0.574847 0.654742 2.441168 -0.030380 -1.121827
53908 -2.000956 -0.765225 -0.834382 -1.943784 0.537613 1.586417 -0.321736 1.150139 -2.214396 0.528209
54238 -3.310803 -0.571660 -0.407846 -1.334329 -0.012706 -0.604196 -1.509459 1.616668 -1.417922 0.999684
59716 -1.688449 -0.156820 0.425139 -1.099133 -1.433930 0.266094 1.839162 1.003834 -1.251388 -1.892885
66250 -0.630995 -0.062385 1.112628 -1.558158 -1.015746 0.925132 3.482082 0.810858 -2.192024 3.484110
60783 0.006299 -1.269856 3.758039 -1.829545 -4.078874 -0.883532 2.775888 2.189450 -1.543122 -0.772955
77105 -0.730178 -0.711078 0.752402 -1.295493 -1.329234 -0.935706 0.470894 1.211997 0.897480 0.998723
73623 -1.106339 -2.594040 1.010778 -0.635773 -1.938898 -0.970763 0.275910 0.696696 0.305563 1.751764
57738 -2.111017 2.219819 1.115693 -2.071306 -2.147410 1.393755 1.367747 0.238174 -2.665787 2.025455
63488 -0.884612 1.262037 0.172511 0.412699 -0.676447 1.752194 3.116308 2.376572 -1.616828 1.106585
58780 -2.660938 -0.274879 -0.329528 -1.785812 -3.446070 -0.847880 -1.270123 1.890657 -0.548159 -0.574866
59242 -0.520406 -0.216283 -0.710772 -0.174189 -2.287866 0.064817 -0.467288 2.071310 -0.934750 -0.558832
59882 -0.678284 -0.133859 0.124065 0.403055 -3.034820 -0.696904 0.661244 2.199195 -1.037753 -0.983941
56408 -1.149445 -0.583375 2.056216 0.894158 -1.729056 -0.228818 -1.363214 1.171921 -1.028364 0.437236
52843 -3.905099 -0.548615 1.862103 0.188751 1.030042 -1.099048 -0.229125 1.448907 -1.465300 0.569636
57367 -1.972376 0.380986 0.058690 0.692468 -2.358947 1.243075 -0.957200 1.051155 -2.490141 0.178704
50771 -2.395260 -1.039073 -1.207241 0.533457 -0.192748 0.375553 0.664581 1.967221 0.485297 1.133979
53363 -1.311059 -0.320927 0.923093 -1.108625 1.412543 0.869980 -0.426662 2.574314 -0.702461 0.386086
63721 -0.228833 -1.219608 -0.342347 -1.418640 -0.591833 2.330311 3.146181 1.917646 -1.126150 1.085563
55501 -2.313252 -1.617577 0.721130 -0.666042 -1.246174 1.097431 -1.564192 1.630402 0.080746 -0.459545
52695 -1.514953 -0.109625 1.746795 -0.950729 0.855172 -0.904024 0.063060 1.240900 -1.612877 -0.573024
60657 0.123997 -0.923042 2.051063 -3.629173 -3.445362 -0.154192 2.635116 3.016778 -1.060762 -0.589219
63612 0.302117 0.555213 1.109319 0.024296 -1.434978 1.923589 2.495770 1.569381 -2.297618 1.326854
56771 -1.299144 -1.055741 2.616139 2.460035 -3.731791 1.336906 -0.961211 1.743687 -1.764655 0.682008
52087 -3.285648 0.332056 1.382391 1.276671 0.558360 0.457766 0.415126 1.552931 -0.738921 1.129131
67493 0.006331 -0.484912 2.184702 -1.656652 -0.397028 -1.399986 2.041519 1.554352 -1.787251 2.252903
54754 -2.050118 -2.334711 1.098325 -1.519686 -0.228588 1.913373 0.349036 -0.229096 -1.151109 0.391632
56096 -2.144259 -0.196000 0.686333 -0.325537 -1.819583 1.320612 -1.652334 2.211547 0.064539 -0.258120
54314 -3.023692 -2.835428 -0.284014 -0.755571 -0.641797 -0.270569 -1.854270 0.357030 -2.688355 1.291521
59630 -0.547394 -0.633241 0.293800 0.227171 -2.151793 -1.337787 -0.438336 2.979227 -1.118326 -1.216203
62221 0.499949 0.356240 0.456468 0.003367 -1.295738 1.192980 1.748658 2.532977 -0.887151 -0.214436
51322 -2.074270 -0.590080 0.757042 -0.747131 0.153911 -0.476685 -0.445901 4.000496 1.272475 1.513382
53218 -2.828196 -0.748954 0.902884 0.946122 0.842801 -0.776788 -0.765283 2.765325 -3.190523 -0.619269
58773 -1.411650 0.023713 0.042596 -2.158312 -3.045542 -0.566683 -0.292218 0.991540 -0.643508 -0.040890
66920 -0.120023 -1.686732 0.872346 -0.680364 -2.046154 -1.705082 2.207511 0.567969 -1.869816 1.614052
60536 -0.136053 -1.007168 0.624933 0.273543 -1.094302 -0.886010 0.127489 2.262360 -1.200617 -1.395493
61682 0.142281 -1.885351 0.353200 -1.364031 -2.323163 2.334510 1.382811 1.650209 -2.404959 -1.439196
64986 0.143108 -2.014663 -0.328759 -0.923110 -0.393112 1.311282 2.789407 1.635701 -1.257534 1.490594
54540 -3.167380 -2.386949 -0.354219 -1.239480 -0.354455 0.690918 -0.962555 1.164054 -0.647485 -0.290407
50206 -0.325960 0.319169 1.285820 0.481430 0.022150 0.790195 -0.053033 2.937642 -0.779116 2.839718
57281 -1.435551 1.221474 2.256197 -0.797309 -2.412195 1.158802 -0.855579 0.920877 -2.039269 0.140255
75745 -1.916274 -3.369578 2.121790 -0.892057 -1.828553 -2.643553 0.858395 0.987927 -0.093216 1.064065
53181 -2.990906 -0.425409 0.716177 1.539835 0.163421 -0.999268 -0.082116 2.326226 -2.878948 -0.760866
54855 -2.987966 -2.272505 0.373846 -0.069803 0.173912 2.093037 0.047042 0.609104 -1.066084 0.182187
66981 -0.414444 -1.786573 -0.666124 -1.444363 -0.196839 -1.730168 1.991069 1.567535 -3.516111 1.525965
58260 -3.976900 0.666937 -1.241808 -0.107864 -2.474051 -0.871449 1.484333 0.427700 -2.170963 0.311416
74856 -0.413193 -1.353782 1.738415 -2.108378 -1.137759 -1.841582 0.787689 1.546870 0.001950 1.132822
67854 0.131669 -1.951204 0.757532 -0.124913 -0.802633 -1.223801 1.099789 1.470728 -0.359943 1.276679
59291 -1.603852 -0.093628 -0.683569 -1.044975 -1.973481 0.233320 1.858663 1.031021 -0.110221 -0.445152
71806 -0.318355 -1.385656 4.319289 -0.439287 -0.556327 -0.022267 1.200532 2.036603 -0.227004 2.371352
65950 -0.700470 -1.049797 -0.030430 -2.020746 -1.510004 -1.558168 4.145011 2.295963 -1.393147 1.615090
56372 -0.776634 -0.920852 2.013698 -0.429565 -1.656372 0.544737 -1.509132 1.006381 -1.581491 -0.641347
66076 0.822107 -0.051647 -0.712344 -0.756188 -0.813294 0.044824 1.138763 2.347376 -1.993867 1.724006
60683 -0.830531 -1.723061 -0.265562 -0.769705 -2.094667 1.072410 0.985515 1.780703 -0.274402 -1.540778
56815 -0.611597 -0.692378 2.407510 -0.695809 -2.277964 -0.599180 -0.660756 0.375854 -1.265186 0.179797
51407 -1.879000 -0.456280 0.863153 0.818397 0.538260 0.638082 -0.489048 3.348950 0.011105 0.316793
62023 -0.696198 -2.785696 1.842412 -1.691135 -1.361352 2.971757 3.095396 2.373270 -1.713158 -1.761441
62401 0.816575 -0.404201 0.388597 -2.689130 -2.116141 1.868172 3.280277 3.128405 -1.795964 0.767024
54319 -3.506715 -2.149414 0.053002 -0.988345 -1.190940 -1.533781 -2.355657 1.472110 -1.496744 1.312339
52983 -3.327560 -0.291427 2.551093 1.400506 0.260723 -1.790195 -0.047887 3.172679 -3.246372 -1.457369
50486 -1.218434 -0.386052 0.711074 1.232548 -0.086156 -0.422774 -0.633098 2.415509 -0.573207 2.161178
58155 -1.150510 2.180681 0.794641 -1.899005 -1.732824 0.732920 1.170863 1.325735 -3.215460 0.468872
52457 -3.875418 1.708167 0.896523 -0.507093 0.587359 -1.183340 1.253541 2.220734 -0.877525 1.304666
50638 -1.106277 -0.656747 -0.180518 0.717325 -0.422815 -0.993584 0.135091 3.766341 0.452791 1.546111
53626 -1.722391 -2.286250 0.977346 -0.591159 1.305716 -0.110167 -0.564608 0.763792 -1.268820 1.558661
58197 -3.544753 0.349823 0.752259 -3.111386 -2.711617 0.064562 0.825271 0.292032 -1.607822 -0.913477
54203 -4.861322 -0.777873 -1.704529 -2.863006 -0.661213 0.018449 -0.105489 0.678487 -2.769865 2.442112
54017 -2.162371 -1.125684 -0.934832 -1.671002 0.664180 1.041347 0.505244 0.895703 -1.003613 0.713066
61733 0.266804 -0.786863 0.707881 -1.842489 -1.926658 1.993296 1.357975 1.219844 -0.482027 1.167957
57315 -1.792340 0.603481 1.468593 1.550922 -2.939629 -0.008554 -0.951949 1.241814 -4.013943 0.292696
52719 -4.628013 0.653195 0.813491 -0.798562 0.720518 -0.610905 0.992285 1.478603 -1.094205 0.119857
54145 -2.960681 -1.654144 -1.707835 -1.496319 -1.068278 1.222110 -0.976750 0.903320 -2.319297 0.781192
56273 -1.454452 -0.169704 2.288552 -0.089639 -1.523394 1.545056 -2.294747 2.838508 -0.285281 0.646129
57213 -1.028598 -0.419636 1.815486 -1.406591 -1.533200 0.258445 0.405884 -0.753058 -1.766649 0.872540
65816 -1.132502 -1.324399 -1.232800 -1.253354 -1.113348 -0.188573 3.497041 1.948107 -0.746247 1.094286
74412 -1.432108 -0.708994 0.421542 -0.321358 -0.835371 -0.453403 0.546167 0.236827 0.179658 2.160966
65221 -0.484316 -2.387462 -0.636993 -1.712692 -1.482793 1.057822 2.328040 1.123036 -0.109638 1.920270
71962 -0.571209 -0.895134 3.498272 -1.230283 -1.996996 -0.898180 1.738239 1.177218 0.164534 2.346012
65873 -0.408824 -0.758592 -0.155811 -1.387889 -1.219551 -0.651748 3.376644 2.099686 -0.901923 1.558921
53841 -2.048666 -0.974186 -0.260037 -0.935765 0.551275 -0.639697 -1.395059 1.461993 -2.103867 1.139553
75628 -0.564145 -0.071541 0.784944 -0.811869 -0.670930 -1.156524 0.482479 1.488536 0.572075 1.382632
54817 -1.622796 -0.842506 1.330947 -2.004939 -0.482021 0.284092 -1.294415 1.106622 -0.552231 -0.447156
53498 -1.610999 -0.291717 -0.366229 -0.360943 0.447748 1.117887 -0.803407 2.109189 -2.978941 -0.530116
70700 0.121741 -2.538801 3.089533 -0.717807 0.206424 -1.717274 1.235572 2.068003 -1.879005 0.499680
56579 -1.331065 -1.417382 2.435820 2.074833 -1.764234 1.504382 -0.804157 0.939919 -2.305597 1.548242
53829 -2.843321 -0.015785 -0.846600 -1.669915 0.983392 2.204388 0.611279 1.518897 -2.612883 1.173717
63512 -0.465940 -1.867265 0.327112 -0.506551 -1.393049 2.162322 4.356167 1.866685 -1.437109 0.368385
66588 -1.144566 -1.090021 -0.409860 -0.717486 -0.654044 -1.216418 3.889740 1.773485 -1.697976 1.590667
53394 -1.707691 -0.770860 0.309539 -2.062409 0.666150 0.353697 0.513599 0.884322 -0.198847 0.529095
65126 0.137953 -2.207690 0.301046 -0.994978 -1.020148 1.268333 4.009636 2.500324 -0.659206 2.648274
70085 0.254015 -2.310074 1.482188 -1.217654 -1.004170 -1.757496 0.693693 1.599361 -1.748946 3.230842
50490 -1.645286 0.261838 -0.250951 -0.243727 -0.895570 -0.193873 -0.554455 2.092214 0.322875 2.223600
53286 -4.149130 -1.124943 0.205134 1.181636 1.361943 -0.204731 0.042856 2.449265 -3.308163 -0.088755
53578 -2.163744 -1.583195 -0.111590 -0.694908 2.140491 0.093277 0.213506 2.159942 -1.648745 0.645836
53021 -4.158126 -1.167113 1.623667 0.711683 1.261361 -1.197593 0.835515 2.831366 -3.084502 -1.649971
62058 0.387047 -1.612760 2.458134 -0.899958 -2.013017 3.780702 2.699619 1.852872 -2.202646 0.452683
65292 -0.373711 -1.718748 0.271949 0.015275 -2.798762 -1.333202 3.683482 1.486303 -2.393503 0.394498
59914 -1.879492 -1.049607 0.046159 -2.408324 -1.553147 -0.566063 2.402911 2.865579 0.063181 -2.053680
57371 -0.129719 0.867410 0.984158 -1.504697 -2.792001 -0.399651 0.027881 0.798152 -2.347150 1.362336
63861 0.001067 -2.988583 0.635104 -1.426826 -0.912543 1.190243 5.015050 1.669570 -2.676111 1.207066
52607 -3.937291 0.197177 1.834201 -0.465895 0.884016 -0.760667 -1.110751 2.266674 -1.025627 0.992531
67776 0.757865 -0.364177 3.651259 -1.309405 -0.798421 -1.097306 1.412081 2.202278 -3.791406 2.105679
69173 -2.668450 -2.834344 3.095996 -2.106115 0.620875 -2.275372 3.668638 1.141592 -3.038595 0.571688
68323 -0.085324 -2.343216 0.542418 -0.301936 0.518487 -0.702283 1.327579 1.724457 -1.063253 0.647685
60313 -2.298885 -0.760401 0.002829 -1.736996 -2.127645 -0.483537 3.003994 1.236485 -0.350668 -1.330370
63760 -0.571430 -2.258532 0.359316 -0.962165 -0.924032 1.978683 4.089882 1.461868 -1.890062 0.369997
51874 -2.666646 -0.854208 0.367863 1.293770 0.047174 0.759346 0.783480 1.264265 0.081377 0.033613
50681 -1.434004 -1.655162 0.233776 2.316390 -1.006676 -1.492442 -0.505414 2.963747 -0.882218 1.324121
53062 -3.160969 -1.107882 0.326568 0.351083 0.433060 -1.334242 1.268604 1.585983 -1.723042 -1.584489
55258 -2.671200 -1.005189 0.475963 0.159140 -0.401804 2.163757 -0.880964 1.102850 -0.813314 0.560231
60704 -0.327616 -2.226398 2.276376 -1.577253 -3.161624 -1.614135 2.583744 1.572824 -1.979975 -0.959782
53446 -1.432269 -0.420668 -0.122999 -0.731535 0.471187 0.188641 0.289247 0.683262 -0.810915 -0.062026
68090 -1.737251 -1.961366 2.043739 -1.674031 0.552344 -0.510663 2.655850 0.130874 -4.385140 2.609087
70855 -0.946863 -1.807468 2.435462 -0.345024 -1.175508 -1.092424 1.566244 -0.427090 -3.019257 1.841932
56035 -2.760170 -0.899756 0.981070 0.123758 -2.121503 1.640411 -1.390976 1.532988 -0.354383 -0.407367
66288 0.168875 -0.382250 1.245547 -1.578242 0.091800 -0.982378 3.102793 2.707901 -1.004648 1.522094
65042 0.074716 -0.695952 -0.791059 -1.668483 -1.082269 -0.271122 2.771225 2.471085 -1.292741 0.800438
65621 0.333948 -1.273457 -0.481156 -2.475004 -1.347620 -0.998552 3.689543 2.988100 -2.591543 1.537424
67015 -2.377043 -0.970989 -0.528271 -0.816714 -0.993874 -0.544276 2.954912 0.063923 -1.354878 2.542773
65768 -0.381492 -1.668661 0.177966 -1.547836 -1.815014 -0.586171 3.788408 1.995029 -0.311580 1.786452
50854 -1.603955 -0.780327 0.617817 0.756225 -1.199538 -1.943433 -1.291260 3.931241 -0.196191 1.519639
55331 -3.134129 -1.159030 1.562716 0.119275 -1.809072 2.323433 -0.416523 1.807059 -0.049570 -1.275212
52002 -3.267386 1.156363 0.991094 1.475772 -0.418848 0.097449 0.634686 4.017999 0.161208 1.095649
72103 -1.077935 -2.807399 2.249967 -0.802034 -0.536259 0.160752 2.437178 0.601278 -0.166261 2.226576
56205 -3.622207 0.565486 0.942409 -0.330011 -2.932620 1.774480 -0.822805 0.995321 0.063368 1.530930
51242 -0.545272 -0.852173 -0.156261 0.269575 -0.361237 0.299401 -0.640802 3.271610 0.119943 0.136176
59222 -1.587765 0.219536 -0.938695 -3.140322 -2.925427 -0.698432 1.400576 3.812377 -0.603222 -1.256828
59456 -2.198189 -2.585360 -0.076402 -1.993658 -4.333690 -1.196061 0.384219 0.750988 -1.378317 -1.193102
56585 -2.020395 0.473852 2.303642 1.391179 -2.562764 2.773661 -0.360802 1.132593 -1.216617 1.770818
67232 -0.577388 -1.381967 1.460676 -0.902285 -1.572342 -1.856069 2.570352 0.444908 -4.575433 1.607397
61417 1.023680 -2.020356 0.459826 -1.232700 -3.663350 -0.128714 1.362347 2.081800 -1.805858 -0.401225
58848 -3.047572 0.608239 -1.247607 -1.530470 -2.943796 -0.166755 1.611601 1.193668 -0.431927 0.885952
59609 -0.681337 -0.236665 1.239602 -0.379888 -2.008044 0.647008 -0.304069 1.129231 0.644811 0.473532
67620 -0.323522 -1.984708 -0.195971 -3.287119 -0.724087 -1.998862 1.968601 2.187798 -2.842339 2.700946
58851 -2.637850 0.920445 -1.609170 -2.966751 -3.115248 -0.588449 0.791911 2.765528 -1.452465 -0.542523
70721 -0.567396 -1.945143 2.349763 -1.178321 -1.172568 -1.021160 1.519307 1.060686 0.278233 1.201480
56149 -1.395755 -0.102488 2.401200 -0.322662 -2.249815 3.342869 -1.099271 1.893785 -0.557201 1.155096
57701 -3.242854 1.040844 0.374566 1.285008 -3.549269 2.035044 0.968671 1.462627 -1.649214 -0.406697
57287 -2.700149 0.055677 1.541023 1.744740 -2.186684 0.535881 0.600158 0.221921 -2.589997 -0.078556
60416 -0.772272 0.513349 1.737150 -1.202069 -2.805301 1.018821 1.557245 1.338318 -0.166650 -0.349195
61036 0.626968 -1.583788 2.388792 -2.358872 -3.267604 -0.207260 2.919683 1.399073 -2.324214 0.238412
66832 1.114985 -2.345350 0.897916 -0.581380 -1.044710 -1.150355 0.512967 2.151802 -2.170478 1.855321
52021 -3.227528 0.193630 -0.239921 -1.059192 0.036036 -0.603375 0.230204 2.030265 0.338345 0.332174
63443 -0.632036 -1.025964 1.050959 -0.792466 -0.655910 2.225430 4.274341 2.181245 -1.344029 0.249606
53004 -3.554210 0.712308 0.023401 -0.363782 1.018546 0.866105 1.458229 1.502846 -1.859086 0.091253
67386 -0.931534 -2.391494 0.034197 -2.998544 -0.143815 -2.209584 2.259836 1.709271 -3.687593 1.649990
60560 -1.228163 -2.257681 -0.465870 0.102349 -2.699876 0.322932 0.762485 0.004074 -1.254660 -0.421867
50606 -1.065822 -1.072340 0.706658 -0.486407 0.313130 0.632537 0.892753 1.631076 1.006851 1.074095
63233 0.625369 -1.403888 2.503026 -0.638333 -1.289316 0.700278 2.819194 2.496878 -4.193138 -1.374478
54452 -4.297039 -1.119957 -0.967018 -2.638548 -0.526068 0.356809 0.448796 0.246069 -1.364220 2.407396
61628 -0.428058 -0.482348 0.096806 -0.641739 -1.328344 1.853425 1.674485 2.383122 0.048298 -0.942386
64824 0.796039 -1.265090 0.413110 0.649516 -2.383122 -0.710888 1.464115 2.571578 -0.114352 2.226943
60104 -1.104403 -1.214422 -0.712695 0.336587 -1.570169 -0.000752 -0.374661 1.295638 -0.369552 -0.580419
66099 0.229531 -1.030185 0.966094 -0.430657 -1.982612 -1.293048 2.376165 1.289768 -2.370681 0.642003
71809 -1.118979 -2.874896 3.234036 -1.376149 -0.275708 -0.267022 2.926784 1.392810 -0.028759 2.554934
51937 -1.696356 -0.696304 0.572180 -1.062827 0.783571 0.404159 0.949736 1.569015 0.654727 0.215227
74905 -1.313454 -1.169918 -0.297776 -0.683534 -1.025639 -0.710500 0.618073 0.399727 -0.097725 2.233719
60238 -0.772067 -2.880045 -0.153538 -1.235960 -3.559632 -0.789266 1.146755 1.051773 -1.573790 -1.237742
50736 -1.374194 -1.299046 0.080918 -0.116664 -0.564296 0.210244 -0.073829 2.125590 1.142078 0.024306
72240 -1.894425 -2.913804 2.964846 -0.618662 -1.055058 0.400530 3.346160 1.031681 0.508824 1.781443
59407 -1.208326 -0.609569 0.084104 -0.970546 -3.237043 -0.820116 0.656444 1.464082 -1.496959 -1.426735
52219 -3.343257 0.020314 0.180789 -0.027821 -0.065364 0.394305 -0.205035 1.477090 -0.285369 -0.163368
50560 -1.942626 -1.866644 0.145156 1.714408 -1.166989 -1.135530 -1.044350 1.928322 -0.370583 2.268373
54093 -2.075093 -1.050044 -0.105243 -1.362153 -0.539101 -0.673119 0.301783 0.109547 -0.465156 0.067915
60477 -1.713098 0.259117 0.948405 -0.819819 -2.285350 1.735851 3.262554 2.255935 0.872505 -0.254603
66656 -1.124803 -1.200320 -0.107247 -1.587944 -0.397371 -1.263291 3.784055 1.785491 -2.220262 2.216365
50432 -0.890834 -0.439727 -0.044282 -0.019292 -0.599221 0.523678 -0.354697 1.726713 0.524590 1.434295
57650 -2.836800 1.862278 0.164807 0.151772 -2.534239 -0.162472 -0.934263 1.887147 -2.530110 0.669398
70561 -2.020926 -4.336672 2.280374 -1.035433 -0.188525 -1.010445 4.390545 1.344102 -1.321743 0.438929
53487 -2.094877 0.066870 0.508214 -0.375101 1.764265 1.410799 0.514743 2.355551 -2.895074 0.106095
57728 -2.600143 0.708914 1.229828 -1.459089 -2.608102 0.340015 1.602288 -0.753290 -2.068891 1.266476
57949 -0.638282 2.113819 1.939079 -1.965588 -1.889718 0.974018 0.609172 1.713479 -3.424303 0.295813
59538 -0.168526 0.842473 1.135987 -1.877328 -2.702527 0.849005 1.451329 1.948055 -2.137239 -0.934903
52398 -3.490378 -0.548975 1.853046 -0.181324 1.117640 -0.501822 -1.125396 3.048135 -0.043412 1.152735
52420 -4.222471 0.385275 1.684197 0.210761 0.418781 -1.800912 0.967016 1.667214 -0.608272 0.730281
62129 0.584305 -1.576020 1.450253 -2.005754 -1.663432 3.567708 2.304587 2.723960 -1.049161 0.548807
65035 -0.507033 -2.165960 -0.363286 -0.963085 -1.856574 0.883489 4.294764 1.761438 -0.888995 1.761586
54312 -3.610310 -1.471868 -0.119085 -0.725240 -1.145425 -1.398135 -2.402995 1.409275 -2.408558 1.657768
62951 -0.138025 0.492022 2.223614 -1.086756 -1.547708 2.684726 3.518800 2.433109 -1.191882 1.636174
53233 -1.968113 -0.809925 0.422382 0.407607 0.228933 1.291678 0.126682 1.144343 -0.634982 -0.485341
58905 -2.718575 0.511648 -1.955424 -2.124909 -3.235497 0.724521 1.420398 1.747622 -0.515368 0.667225
67595 -1.412717 -2.614129 0.728408 -0.619483 -0.028493 -2.611346 1.847320 1.428514 -4.419869 1.325836
53380 -1.899282 0.250424 0.572272 0.308167 1.120065 0.261580 -0.528768 3.027394 -2.856394 -0.167580
61238 -1.500409 -2.457118 1.779592 -1.904238 -2.271036 0.586694 3.504966 0.749164 -1.393408 -1.320103
55473 -3.002988 -2.539479 0.984610 -0.423235 -2.366498 2.941780 -1.695254 1.534557 -1.001768 -0.535558
53952 -2.266413 -1.900680 -1.256359 -1.505533 0.039283 0.571418 -2.417850 2.403788 -2.646418 1.506566
52959 -4.211298 -1.064785 1.857356 0.301698 1.050880 -1.533270 0.286353 1.955881 -2.317604 -0.767779
50828 -1.429093 -0.093622 0.249874 0.931977 -0.450995 -1.512414 -0.829049 2.527562 -1.170281 1.086894
62488 -0.357038 -2.189566 0.269820 0.810272 -2.161947 0.800282 1.014684 0.707722 -1.941984 -0.639376
54415 -4.186835 -2.633649 0.869659 -0.780259 -0.143623 -0.013465 -0.854104 -0.633141 -3.302790 1.787244
54426 -2.985484 -2.144232 -1.179393 -1.785140 -0.784928 1.861475 -0.914583 0.671589 -1.823752 1.198973
57661 -2.084883 0.184917 1.337170 -0.414844 -1.739205 -1.671225 0.732659 -0.336744 -3.228990 0.562628
57356 -2.174624 1.361241 1.140328 0.437814 -2.557019 -0.158606 -0.556304 0.853418 -1.040911 1.266068
51478 -1.307384 -0.222837 0.842313 -1.111196 0.718449 0.420163 0.747380 1.640849 0.707471 0.958291
54864 -1.117278 -1.309553 0.149103 -0.882053 -0.947453 1.565484 -0.233282 0.244929 -1.166077 -0.388903
54007 -1.575899 -1.230702 -0.565047 -1.522097 -0.340592 1.392959 -1.582965 1.047695 -1.865968 1.701940
51908 -2.704173 0.894527 0.989459 1.559516 0.405910 0.596037 1.010926 3.081890 -0.610663 0.862470
63098 -1.561472 -1.131698 1.401794 -0.965831 0.128783 3.228521 4.266564 2.057520 -1.926066 -0.300050
66587 0.104731 -2.526161 -0.230913 0.999211 -1.733871 -1.412953 1.348939 1.789364 -4.075675 1.905469
58681 -2.397955 -1.919806 -0.595707 -0.431220 -2.885988 -0.760810 -0.163816 0.038568 -2.058880 -0.858197
64007 -0.027943 -0.959958 0.123197 0.647154 -0.696793 1.636490 2.030175 1.231728 -1.673395 0.869813
58655 -2.775767 0.686679 0.328540 -2.929224 -3.073869 -0.236009 1.832040 1.055061 0.259458 0.676929
56938 -1.683270 -2.267195 1.363265 2.489289 -4.148773 -0.400436 -1.348184 1.423283 -3.348810 1.183621
52120 -3.788859 0.656810 2.221109 1.121053 0.911118 0.138230 1.184531 1.692230 -0.903358 1.518137
57250 -1.877149 -0.625796 1.698916 2.223193 -3.759057 -0.711294 -0.951208 1.167750 -4.311256 0.687819
50239 -0.590556 -0.594497 0.270851 0.930738 -0.264952 0.228142 0.479018 0.857124 -0.304877 1.287011
67672 -1.698685 -2.987208 1.258926 -0.729412 -0.141904 -2.900402 1.422738 1.275584 -4.680934 1.055159
63350 -0.599526 -1.676251 1.501655 -1.160239 -0.689693 -0.189036 4.490302 2.885152 -3.392321 -1.978337
56327 -2.452785 0.242448 1.885239 0.701434 -2.524890 0.743160 -2.053701 2.055157 -0.577942 0.847375
55238 -2.767237 -1.119115 1.727393 -0.742596 -0.017037 2.213424 -0.927924 0.874269 -0.975663 0.377261
54920 -3.381680 -1.094528 1.008425 -0.808505 -1.073169 1.826133 0.149513 0.962818 -0.500355 -1.489998
67397 -0.415410 -1.052207 1.054573 0.171532 -0.052668 -1.043931 1.530150 1.226809 -4.770676 1.014754
70508 -1.188499 -2.058962 0.704204 -1.051761 -1.110010 -1.468408 2.008173 0.402901 -0.430469 1.560682
60350 -2.485419 0.038296 -0.639955 -1.543470 -2.721813 1.674263 3.621001 1.755278 -0.805010 -0.729564
61543 -0.718400 -3.142054 1.490106 -1.523857 -2.638733 1.566211 3.397066 1.038063 -1.457101 -0.781717
52930 -2.963913 -1.100312 2.735171 0.506858 0.973796 -1.174403 -0.062775 2.023869 -1.922530 -0.470573
50969 -1.989124 -1.281849 0.253223 0.504739 -0.841728 -2.235081 -0.746547 4.279552 0.065539 0.866819
50713 -1.433031 -0.991772 0.363283 0.155864 0.088613 -0.737555 -0.840565 3.710211 0.321323 1.902434
60246 -0.280341 -0.182237 -0.366388 -0.326284 -1.757502 1.644969 0.308249 2.928230 -0.647970 -1.150494
71713 -1.190098 -2.814602 3.628606 -1.744618 -0.127249 -0.119048 3.010623 1.570478 -0.107047 2.258689
56397 -2.023586 -0.368498 0.539053 1.084656 -2.402849 3.004088 -1.181540 2.015176 -1.930519 0.658553
54191 -4.370148 -0.321617 -0.683929 -3.057970 0.269198 0.375752 0.440760 0.738756 -2.042077 1.788113
54280 -1.704499 -0.848454 1.129635 -0.643538 -1.349060 1.116615 -0.601786 -0.068709 -0.509507 0.674800
62988 -1.424809 -1.811119 -0.348338 1.084208 -1.834245 1.199618 2.309956 1.160960 -3.281828 -1.253965
55206 -4.253092 -1.062287 0.973865 -0.922416 -1.090275 3.016112 1.279798 0.667318 0.206150 0.487052
67547 -0.680188 -2.906393 -0.132165 -0.884063 0.454854 -1.362193 2.000845 1.858100 -2.565391 0.076928
51078 -2.102372 -1.801732 -0.005124 1.542977 0.265478 -1.406544 0.148797 2.660291 -0.438824 1.388432
55727 -3.593314 -0.369541 1.621275 -0.234678 -1.195475 2.516791 0.636302 0.988998 0.836191 1.363366
51362 -2.230212 -0.519894 0.763959 -0.196380 1.017726 -0.378853 -0.389648 3.941984 0.153027 1.261825
62063 0.028708 -2.477456 2.623044 -1.446725 -1.875894 0.660678 2.797705 1.951876 -2.948809 -1.784484
53072 -2.806521 -0.225386 1.094487 0.454218 0.048654 -1.371166 -1.648345 3.561717 -1.887543 -0.332925
54428 -3.838336 -2.305044 -0.748232 -1.410694 -1.623639 1.293926 -1.180950 0.368108 -1.407180 0.477963
50872 -1.857861 -1.360854 0.189877 0.684942 -1.379294 -2.510259 -1.251296 4.265445 -0.412038 1.260424
66618 -0.229982 -0.718354 -1.118974 -0.308927 -0.891476 -0.186581 1.383510 1.237149 -2.624826 1.561958
60155 -0.530577 -1.619295 -0.126039 -0.020929 -3.017277 0.028669 0.439519 1.816198 -1.055438 -1.303234
53855 -2.095258 -1.248749 -0.515728 -2.506762 1.181323 0.703888 -0.511277 2.234247 -1.535946 -0.182045
55928 -1.697865 -1.952200 1.500342 0.761688 -1.274044 2.223974 -1.016978 0.967204 -0.114313 1.284343
61731 0.824804 -1.623708 1.112037 -4.013739 -2.778944 1.407169 2.278868 3.232616 -2.752905 -0.867792
55617 -2.154632 -1.349493 3.257482 -0.992009 -1.376081 -0.187535 -0.461740 0.086138 -1.267664 -0.897930
54960 -1.985280 -2.144433 1.826414 -1.763762 -0.692904 1.133294 -1.625492 1.512263 0.468267 0.745116
62804 -0.801259 -1.412091 2.082312 -1.808841 -0.326460 2.210828 4.156156 2.512088 -1.463917 -0.600841
50672 -0.971829 -0.509043 0.012724 1.410831 -1.557955 -1.009063 -1.575187 4.314202 -1.245630 2.102934
58382 -3.191630 0.684042 0.801201 -3.021244 -2.208588 -0.578949 1.672246 0.391116 -1.059187 0.308237
56849 0.102690 -0.283539 0.911357 0.193034 -2.203460 0.336583 -0.758706 0.888282 -1.195741 1.411132
54288 -2.879845 -1.155628 -0.902549 -1.345904 -0.327520 -0.717286 -0.938414 1.091714 -1.234670 0.742014
52671 -2.695792 0.753959 1.644240 0.460161 -0.096822 -1.639218 -0.618346 2.347176 -1.559840 0.685834
67142 -1.476829 -1.469578 0.684064 -2.035481 -0.078176 -1.721541 3.832757 1.511556 -2.776865 2.506515
65112 0.874898 -1.206503 1.465367 -1.329165 -0.782166 0.722721 3.024060 1.699994 -2.275636 2.649415
53382 -1.884299 -0.384263 0.332275 -1.674380 0.838767 0.493298 1.187793 1.071492 -0.172780 0.274665
68089 -0.909164 -3.100203 -0.539289 -3.366366 -1.227036 -2.069451 1.976914 1.700464 -2.267477 1.420813
63238 -1.074438 -1.165016 2.378483 -1.809257 -0.911367 0.204509 4.580987 1.703381 -3.998899 -1.486609
54382 -3.704783 -3.051212 -0.641836 -1.218329 -1.284288 -0.459533 -2.197922 1.788033 -0.736612 0.571994
55866 -3.086820 -0.292442 1.490692 -1.188694 -1.862047 2.796065 0.222599 1.533190 1.245969 1.123371
53182 -2.657563 -1.355361 1.331833 1.572747 0.792962 -0.695567 0.468359 3.045650 -3.994113 -1.543892
63271 0.128812 -0.870428 0.132420 -2.689529 -1.027250 1.579051 3.551956 2.615870 -3.141479 -0.218679
58917 -0.661535 1.261194 -0.180082 -0.954459 -2.258016 0.747214 0.691131 1.956702 -2.024641 -0.461435
54539 -4.617221 -2.443394 -1.256567 -1.976182 -0.376157 0.932367 -0.479789 1.051839 -1.394275 0.455202
52071 -1.622879 0.802106 0.095978 1.048502 -0.603101 -0.466511 -0.168477 2.818312 -1.108693 -0.420569
59428 -2.574913 -0.292451 -0.021220 -1.940666 -2.964443 -0.401700 2.702683 1.574990 -0.429254 -1.414028
57767 -2.434407 2.203702 0.341564 -0.390950 -2.403447 1.542709 -0.646073 2.169218 -2.704454 -0.170244
67370 -1.237446 -2.457636 0.299867 0.298483 -0.616907 -2.442615 2.022336 1.154263 -3.189037 2.205253
55282 -2.929012 -1.915603 0.980219 -0.216910 -0.914918 3.161816 -0.219774 0.753648 -1.140196 0.077063
52624 -1.465542 -0.318161 0.438191 -0.449514 1.320464 -1.009331 -0.314449 1.850603 -1.569977 0.785873
72123 -2.063144 -2.333559 2.546946 0.604694 0.004114 -0.978531 0.653034 0.115383 -1.365078 1.783832
57804 -3.696363 2.368922 -0.138840 -1.188764 -2.745386 0.162814 1.560091 0.844753 -2.605222 2.975898
65202 -1.098664 -1.524421 -0.911158 -0.589758 -0.716699 -0.274971 2.201215 0.978629 -0.506061 0.093259
52807 -2.974870 -0.804762 3.321166 0.276247 0.765999 -1.731808 -0.830504 2.083051 -1.801150 0.668080
53838 -1.596963 -1.679929 -0.280970 -1.444134 0.959744 1.571701 -1.270335 2.177454 -2.421758 0.116682
53259 -3.804925 -1.327352 0.500625 1.517295 0.943873 0.551136 0.183133 2.470319 -4.011898 -1.050763
57418 -3.397454 1.306977 0.451235 -0.695059 -3.354326 1.273940 1.162079 0.010566 -1.861833 1.451207
71470 -0.368565 -2.721573 1.951931 -2.881279 -1.015579 -0.990598 2.001882 1.632495 -0.190821 1.958544
51879 -1.199288 0.436799 0.713603 -0.000206 0.101877 0.388658 -0.411207 2.957354 -0.164963 0.083279
53877 -2.947843 -0.895644 0.125516 -1.805524 1.299450 1.417946 -0.793797 1.710626 -1.574136 0.674155
60259 -1.641425 -2.607038 1.145305 0.577010 -3.937165 -1.358325 1.506399 1.357958 -1.105992 -1.354421
61040 0.968702 -0.893148 2.624357 -1.983199 -3.927271 0.842912 2.511175 1.822262 -2.573949 0.772316
54774 -3.146467 -1.531400 1.569578 -0.751654 0.178275 1.059736 -1.429139 0.952639 -1.294349 -0.263353
54335 -2.604617 -1.651164 0.689537 -1.677509 -0.820553 0.149537 -2.218575 0.808422 -0.890396 0.543108
52846 -3.087555 -1.730379 3.279184 0.396880 1.399858 -0.349006 -0.672156 2.234834 -0.697114 0.833939
51654 -2.169079 -0.306046 1.201489 -0.344748 0.040283 -0.111700 -0.428675 3.935141 0.957361 0.162402
55660 -3.616856 -1.437137 0.870844 -0.266970 -1.783741 3.004249 -1.681628 1.708380 -0.125413 1.005184
52507 -2.497959 0.957443 2.040078 -1.258858 0.855816 -0.394523 -0.235997 2.913341 -0.131824 0.630125
53240 -1.623925 0.151285 -0.512216 -0.296172 -0.331335 0.427090 1.630184 0.890228 -0.240172 0.126562
55440 -2.285414 -3.036591 1.964863 -1.085926 -1.046901 3.063922 -1.531809 0.655655 -1.673968 1.051969
58060 -2.181209 1.305175 1.977745 0.041000 -2.321024 -1.221270 -0.600828 1.291098 -3.712606 -0.217439
50199 -1.123615 -0.539047 1.212477 0.160657 0.439321 0.526925 -0.057927 1.963021 0.613071 1.838682
58488 -1.577800 1.956459 1.397044 -0.517294 -2.224912 0.622544 0.810261 2.261879 -1.719834 -0.899323
71870 -0.755851 -3.444249 3.542661 1.046087 -0.001115 0.320222 0.535933 0.904831 -2.989354 1.338734
61695 -1.930403 0.009686 0.107764 -1.393822 -2.231545 2.365382 3.450788 1.932369 -0.420669 -0.507734
58234 -3.576190 1.450341 -1.563979 -1.485086 -2.473356 0.265974 1.578081 1.024998 -2.243213 1.918216
53145 -2.577412 0.642922 0.539833 -0.305345 -0.065818 -1.342599 -0.286239 2.813620 -2.462304 -1.235451
51871 -3.791207 -0.598933 1.053493 1.385840 0.343432 -0.500367 0.915380 2.240998 0.324941 0.567062
57181 -1.425832 -0.521747 2.369529 -1.153864 -3.294656 1.491813 -0.919566 0.397718 -0.779551 1.267044
54080 -3.224245 -0.517497 -0.631189 -2.254691 0.451638 1.300490 0.227174 0.585661 -2.090469 2.587129
53733 -1.671288 -1.434429 -0.021188 -0.240258 0.517760 0.674402 0.256088 0.200919 -2.837357 0.475303
63854 1.274740 -0.848527 1.530500 -1.728925 -0.786693 3.336588 2.593882 2.653298 -3.907803 2.274045
68776 -2.223102 -2.128376 3.092596 -1.734106 0.991464 -0.293263 3.322872 0.734916 -3.405704 1.628776
53863 -2.378545 -1.386698 -0.788602 -1.047998 0.454748 0.079274 -2.108229 2.530424 -2.427807 1.057105
60067 -1.377626 -1.835671 -0.170122 -0.870491 -2.769313 0.744270 0.779692 1.261088 -0.009366 -1.319899
53813 -2.826385 -1.855523 0.002283 -0.185710 0.749287 0.382715 -0.942288 0.753106 -4.212356 1.780714
67138 -1.636672 -1.345031 0.414043 -1.927487 0.048587 -1.616419 4.170660 1.698172 -3.101049 2.303089
53184 -2.253568 -0.187129 1.055261 0.036647 0.909954 0.390966 -1.303797 2.193754 -1.780375 0.285560
62515 -1.686496 0.001406 0.098423 -1.029659 -1.384888 2.744608 4.170965 1.475832 -1.927307 0.749848
61718 -0.571680 -3.379807 2.152467 -1.486821 -2.236485 2.380290 3.481580 1.634108 -1.494393 -1.176736
70921 -0.991979 -3.662648 3.308128 -1.702869 0.052322 -0.144022 3.255132 1.588945 -0.793660 1.409321
60574 -0.978021 -2.562890 2.437550 -0.788789 -3.613909 -1.325461 2.437884 1.188326 -1.469700 -0.965375
52728 -3.048160 -0.012875 3.232503 0.323261 1.288189 -1.322221 0.476125 1.915938 -1.538782 1.606048
56399 -1.439173 -1.645869 1.862300 0.894186 -1.406821 0.856691 -2.468733 1.451015 -1.724184 1.016093
60442 -2.342063 -1.916628 1.470826 -2.508684 -2.199550 -0.658181 3.576671 1.950530 -0.000591 -1.451104
53087 -4.218250 -0.512897 1.106627 1.834507 0.632173 0.289383 1.683804 2.317561 -3.212385 -1.513513
58301 -1.409400 1.199944 -0.422184 -1.201434 -2.799740 -0.554259 -0.948295 1.847263 -1.902307 0.509522
66227 -0.118577 -0.877989 0.155551 -0.942872 -1.398285 -1.006831 1.709239 0.954130 -0.473150 1.429502
54180 -3.999937 -0.539883 -1.076049 -1.867604 0.292015 0.924328 0.165916 1.198512 -1.302390 1.707434
62479 -1.111918 -1.670927 2.272008 -1.885926 0.110154 2.557130 4.238626 2.719395 -1.832387 -0.678229
60776 -1.848385 -1.386496 3.210199 -2.470024 -2.230362 -0.123613 4.129060 1.370465 -0.444931 -0.707346
61547 -0.719072 -3.522549 2.004522 -1.671867 -2.773373 2.070645 3.330780 1.248061 -1.630692 -1.118970
54136 -2.139701 -1.551431 0.066104 -2.344336 0.593951 1.046056 1.079205 0.369876 -1.024780 0.810295
58051 -1.182485 -0.163781 2.692934 -0.923828 -3.699451 1.325051 -0.772334 1.003501 -0.429426 1.249489
57291 -1.789014 0.387427 0.485844 0.875695 -4.110746 0.772954 -0.666322 0.797344 -2.920397 0.924186
72646 -1.424387 -1.615620 2.065073 -0.270254 -0.453323 0.863078 1.635398 0.451783 0.352445 1.381114
69614 -2.111405 -3.660173 0.351211 -0.297989 -0.489081 -0.544928 1.721688 -0.178309 -4.062090 0.547003
59017 -0.779820 -0.012427 2.043427 -0.606533 -2.660786 0.834148 -0.733488 1.040554 0.073505 1.109793
58057 -3.429195 0.887887 1.423414 -2.650171 -2.325599 -0.401064 2.036022 -0.488907 -2.382645 0.879375
64940 -0.202943 -2.632736 0.451758 -1.010198 -0.681712 1.754863 4.413037 2.218693 -1.222179 2.208574
57297 -0.434738 0.961824 3.368890 -1.353577 -1.824307 1.829905 0.163282 1.128768 -2.307171 0.506015
65541 -0.401361 -2.151402 0.127839 -2.120995 -1.859786 0.368362 4.752340 2.700488 -0.622681 2.290882
57309 -1.583447 0.297530 2.311774 -1.415358 -1.949513 0.868678 0.840980 -0.701117 -1.724221 1.184929
74374 -1.059344 -1.098541 1.132436 -0.048856 -0.427308 0.585296 0.866223 0.291438 0.447186 0.811629
60660 -1.991495 -1.474645 2.599658 -2.755303 -2.078457 -0.608104 3.926898 1.752983 -0.267763 -1.014237
61587 0.154446 -0.805968 1.373107 -0.617899 -2.533320 0.295369 3.084670 1.698825 -1.356074 -0.870372
60379 0.347413 -0.646254 1.759278 -2.276906 -3.750624 0.627543 1.544398 2.833403 -0.646283 -0.625149
64534 -0.612765 -3.031928 0.778316 -0.632188 -0.364342 2.300451 4.947268 2.083338 -2.036282 2.024507
67384 -1.593880 -1.902723 1.262201 -2.085156 0.203778 -1.260602 3.605165 0.911644 -3.584090 2.488666
62061 -0.759142 -2.506965 2.671737 -2.001579 -0.872714 2.764018 3.799814 2.313511 -1.868083 -1.101151
72749 -1.332644 -1.381652 1.797735 -0.181508 -0.418625 0.802721 1.353237 0.327523 0.347351 1.226272
61303 -1.301298 -3.039602 2.266766 -1.954626 -3.105022 1.229959 3.805401 0.744358 -1.520236 -0.814368
53596 -2.271551 -1.756386 -0.025644 0.166456 1.956113 1.432205 0.505336 1.710449 -3.495789 1.218720
69267 -2.603854 -3.307460 2.926640 -1.616018 0.852796 -0.722788 3.996641 1.172315 -2.354932 0.605007
68479 -2.226114 -2.090165 3.014679 -1.743783 0.934784 -0.355209 3.433640 0.706482 -3.793716 1.832451
67618 -1.050742 -2.102725 0.897061 0.065563 -0.281429 -1.589592 1.271843 0.760611 -3.383748 1.101750
67679 -1.832377 -2.106809 2.041081 -2.006902 0.388726 -0.956394 3.378174 0.553853 -3.900129 2.496614
54973 -1.380501 -0.840225 0.782307 -3.177201 -1.322710 0.683348 -0.606667 0.883993 -0.425890 0.282967
72639 -1.519138 -1.956089 2.532888 -0.474491 -0.497430 0.971923 2.006736 0.621840 0.314504 1.668930
61395 -1.032143 -3.268739 2.152824 -1.752640 -2.908944 1.541767 3.426029 0.822851 -1.478293 -0.810998
64552 -0.518241 -3.146599 0.814464 -0.657135 -0.352573 2.347104 4.853397 2.129403 -1.869878 2.128258
62076 -0.986771 -1.980460 2.763676 -2.107820 -0.398880 2.719020 4.071885 2.500099 -1.964511 -0.924728
71523 -1.154697 -3.421594 3.947918 -1.710697 -0.039303 0.470999 3.413469 1.924230 -0.300551 1.904111
72261 -1.646780 -2.414049 2.894539 -0.750140 -0.565592 0.918185 2.513890 0.896142 0.324556 1.870949
70374 -2.000803 -3.880904 2.903585 -1.706923 0.321988 -0.746338 3.990280 1.332701 -1.703464 0.582593
60609 -2.168583 -1.584981 2.356213 -2.730878 -2.120728 -0.829942 3.969413 1.930146 -0.211923 -1.160407
71358 -0.868403 -3.504627 3.509939 -1.620131 0.029376 0.086478 3.281272 1.662298 -0.671334 1.553813
72131 -0.197804 -1.616586 3.822842 -1.479602 -1.889566 0.337930 1.711171 1.057813 -0.749758 3.307469
61132 -1.715811 -2.189416 2.777163 -2.355809 -2.782991 0.801420 4.277383 0.996597 -0.938337 -0.755136
68435 -0.198049 -2.824738 1.988649 -0.564250 -0.299385 -0.782372 0.619444 0.645419 -4.038837 0.708228
67223 -1.686250 -1.624656 0.825646 -2.025199 0.065805 -1.492548 4.021676 1.258798 -3.458454 2.423231
59872 -2.753785 -1.351251 0.511266 -2.110183 -2.277074 -0.811149 3.121645 1.675647 -0.527885 -1.997971
67999 -1.955623 -2.225543 2.399097 -1.867240 0.600000 -0.657649 3.377638 0.527829 -3.937694 2.295163
71381 -1.019255 -3.519425 3.675853 -1.709923 0.030323 0.146832 3.351877 1.767671 -0.536137 1.702315
68250 -2.131976 -2.158330 2.808590 -1.760563 0.862289 -0.451848 3.429769 0.658528 -3.905884 2.034594
64431 -0.648529 -2.967394 0.790231 -0.708932 -0.305840 2.372875 4.973395 2.049152 -2.222919 1.820609
68940 -2.418253 -2.253068 3.087301 -1.836377 1.179266 -0.222241 3.547389 0.910376 -3.395023 1.423129
55034 -2.082344 -2.058007 2.093513 -1.829438 -0.853724 1.858926 0.836240 -0.200769 -0.438540 0.215332
60581 -2.218591 -1.685102 1.968764 -2.672457 -2.154408 -0.817501 3.820286 1.955453 -0.120451 -1.276556
68968 -2.553318 -2.678598 2.924866 -1.647725 1.028367 -0.569663 3.783595 1.025867 -2.959295 0.835127
66145 -0.954575 -1.146869 0.158975 -2.059220 -0.843107 -1.143222 4.753172 2.696163 -1.637394 2.544796
55467 -1.142434 -0.741630 2.863960 -1.996920 -0.842449 1.647683 0.243997 0.662682 -0.358541 0.032267
70841 -1.177544 -4.047206 3.065464 -1.755922 0.187001 -0.294784 3.495096 1.582574 -1.169111 1.014488
59792 -1.256274 0.383281 0.553878 -1.053477 -2.359048 0.996852 1.726325 1.922212 0.644065 -0.592826
61298 -1.472306 -2.811319 2.342754 -2.074634 -3.013155 1.032858 3.935702 0.790904 -1.324452 -0.799621
69175 -2.545819 -3.078370 2.935646 -1.637887 0.855526 -0.764579 3.930819 1.118982 -2.579861 0.625137
67628 -1.699466 -1.934752 1.832845 -1.999910 0.321609 -1.045555 3.407844 0.623127 -3.787511 2.422036
60958 -1.701332 -1.966238 3.037908 -2.269817 -2.717628 0.595702 4.216846 1.009384 -0.926025 -0.684669
62038 -0.737310 -2.658219 2.620974 -1.900947 -1.122242 2.736288 3.745919 2.161963 -1.848397 -1.102710
62115 0.490941 -0.923331 0.668386 0.376754 -1.844114 0.306501 1.633540 2.001974 0.428932 0.928249
60722 -1.982020 -1.438646 3.045507 -2.656829 -2.325328 -0.271930 4.199148 1.532397 -0.518238 -0.857092
65234 -0.222326 -2.416202 0.102081 -1.905522 -1.574768 0.890835 4.629433 2.651963 -0.838508 2.429232
63332 -0.897782 -1.580467 1.185047 -1.523160 -0.230959 2.813511 5.116598 2.595495 -2.317349 0.259420
60707 -2.031458 -1.440333 2.876552 -2.608119 -2.235865 -0.419109 4.149813 1.619968 -0.390794 -0.963667
68945 -2.415131 -2.372045 3.094177 -1.847747 1.211508 -0.320863 3.485913 0.928003 -3.298857 1.275546
77037 -1.223082 -0.626824 0.398685 -0.206335 -0.241694 -0.035675 0.464673 0.226867 -0.061374 1.928167
68960 -2.474435 -2.561505 3.045357 -1.764179 1.084202 -0.506848 3.715841 1.023622 -3.115533 1.096635
60194 -2.715082 -1.873449 0.902205 -2.343124 -2.182630 -0.948824 3.485887 1.957555 -0.376945 -2.022555
58731 -2.891403 0.163944 0.273656 -2.650459 -3.255392 -0.625719 2.327113 0.933032 -0.068928 0.008652
56307 -1.644520 -0.090642 0.804042 0.417171 -2.343929 3.473564 -0.532728 1.730477 -1.406356 1.298030
56029 -1.405842 -0.826243 2.756612 -1.522522 -1.366291 1.505459 0.600886 -0.272091 -0.754610 0.394466
70765 -1.606991 -4.139678 2.979806 -1.740686 0.228484 -0.554623 3.720243 1.457205 -1.441670 0.728420
62218 -1.002592 -1.839577 2.572055 -2.160214 -0.189032 2.667757 4.038720 2.638353 -1.977971 -0.949358
62062 -0.905249 -2.315052 2.694784 -2.173061 -0.678464 2.734590 3.985320 2.396216 -1.972146 -1.014011
52769 -3.141467 -0.501771 3.603476 0.509412 1.065267 -1.852409 0.104672 2.117697 -2.241827 0.957017
61671 -0.041322 -2.496332 2.980139 -1.771564 -2.523830 0.357069 3.095714 1.967855 -2.881473 -1.845094
50216 -0.414852 -1.194664 0.953026 0.676375 -0.121477 0.628721 -0.600599 2.522085 -0.106464 2.721327
60546 -1.155069 -2.825607 2.445608 -0.761830 -4.219349 -1.443824 2.771306 1.332796 -1.836247 -1.105992
60816 -0.425229 -2.267777 3.399470 -1.376515 -3.178122 -0.753981 2.764483 1.536653 -1.726047 -1.088554
50508 -0.993649 -0.622163 -0.029436 1.808041 -1.508543 -0.393835 -0.744343 3.105561 -0.750996 2.241615
60328 -0.876660 -1.143366 -0.290066 -3.196348 -3.174376 -0.673353 2.261783 2.470050 -0.856000 -1.040961
53409 -2.635953 -0.889288 -0.336839 -0.253653 0.877212 -0.002583 -1.114367 2.561136 -1.863803 -0.103547
69656 -0.725411 -3.114896 1.182013 -3.530406 -0.356522 -1.528172 1.999844 1.589389 -1.955450 1.935689
53210 -2.946440 -2.353236 1.358375 1.650084 0.770411 -0.303645 -0.734942 2.992725 -4.775382 -1.290413
51928 -3.061916 0.625067 -0.347131 -0.404038 0.669465 0.590403 0.471379 3.602575 0.038670 1.240723
65344 1.518846 -3.382975 0.763080 -0.571043 -2.148240 -0.264560 1.565531 2.050628 -2.514179 2.266609
60086 -2.016984 -2.625679 0.962699 -0.268777 -4.254565 -1.628784 2.208002 1.296572 -2.120777 -1.723740
62214 -0.429124 -1.372007 -1.257704 -0.930604 -1.571602 0.560295 1.485195 2.708728 -0.037380 -0.923744
56857 -2.974505 -1.615323 0.872570 2.722394 -2.988249 1.061518 -1.301247 1.499230 -2.537431 0.577446
55225 -1.787427 -2.272628 1.748048 -1.417113 -0.482578 2.623705 -0.766679 0.451791 -1.185269 0.976799
53001 -3.652875 -1.797929 2.813645 1.506186 0.770044 -0.580933 1.086126 2.803012 -3.362011 -2.160391
70096 -1.106425 -2.491816 2.710824 -0.416159 -2.093536 -2.283390 2.988835 0.480281 -3.070124 1.478022
60357 -1.349019 -2.751429 1.969142 -0.291587 -4.488481 -1.475858 2.557161 1.184562 -2.112854 -1.112929
53449 -2.911963 -1.567340 -0.104680 0.074216 1.700058 0.275743 0.740290 1.630592 -2.545357 0.244543
55861 -2.028625 -1.540920 2.441138 1.383490 -1.687413 1.242346 0.011295 0.377371 -0.650881 0.819101
72611 -0.550658 -2.664705 2.103605 -3.201649 -1.683428 -1.356118 1.673674 2.023474 0.137020 2.344397
50532 -1.010938 -0.897170 -0.160954 1.423619 -0.662210 -0.780139 -0.265463 3.244860 -0.284448 1.591556
56744 -0.560890 -0.126312 1.824221 -2.830875 -2.455030 0.468755 -1.115466 1.174740 -1.025842 0.896532
65028 -0.232524 -1.388021 1.270673 -0.408588 -2.012580 -1.175947 3.799684 1.814788 -3.407097 -0.086909
58349 -1.993310 2.252977 0.906992 -0.325104 -2.067098 1.063293 1.203061 1.839996 -2.677150 -0.685558
57420 -3.256507 1.855222 1.755838 0.075661 -3.388025 0.919242 -1.018059 1.684985 -1.193520 0.452173
60405 -1.321567 -2.862689 2.294469 -0.519064 -4.374103 -1.448708 2.644213 1.252208 -1.937644 -1.110720
77604 -0.283679 -0.831983 1.186939 0.164794 -0.971836 -0.551486 1.081044 0.386470 -0.362177 0.343983
60635 -0.741099 -2.630478 3.102844 -1.053300 -3.571223 -1.307912 2.732635 1.569799 -1.744119 -1.172993
71249 -1.071635 -2.370465 2.879461 -0.238565 -1.924565 -1.734985 2.407103 0.183297 -2.129360 1.386737
66381 -0.384135 -1.696601 1.502612 -0.274925 -2.369676 -2.232976 3.155224 1.321050 -3.424811 0.919801
51755 -3.686510 -0.235387 -0.581872 0.242124 0.254150 0.078840 1.787772 1.941354 0.515746 1.699264
60269 -1.610545 -2.787101 1.737174 -0.230406 -4.569193 -1.558538 2.617062 1.267719 -2.115492 -1.333975
62190 -1.795193 0.098559 0.361765 -0.806255 -1.517951 3.030912 4.126897 1.788834 -1.686092 0.261041
64579 -0.131049 -1.461695 1.540906 -0.676084 -1.939537 -0.734052 4.153326 1.971637 -3.660093 -0.309160
52149 -1.085031 -0.677844 1.339998 -0.888363 0.006840 -1.480026 0.478098 1.609559 -0.499861 -1.034374
56243 -1.702607 -1.322189 2.840487 2.163565 -1.981432 1.065509 -0.494320 1.627946 -0.958260 0.115774
54703 -4.284608 -1.429728 0.316221 -1.241392 -0.876611 1.822057 1.054420 -0.061430 -0.207479 1.012576
73898 -0.418949 -1.113093 1.553776 0.179527 -1.197585 -0.732420 1.339584 0.318676 -0.590383 0.536078
58954 -1.872990 -0.981874 0.792442 -1.349997 -4.071249 -2.010169 0.543079 1.026809 -1.910064 -0.931290
73088 -0.607744 -1.354315 1.862880 0.145588 -1.336084 -0.913552 1.526492 0.261159 -0.826852 0.664612
60617 -0.894029 -2.690725 2.883514 -0.930604 -3.775987 -1.403395 2.779001 1.489463 -1.750853 -1.106183
63466 -0.120335 -2.022753 1.943270 -1.014157 -1.631000 0.032339 4.292602 2.026046 -3.913471 -1.020831
61250 -0.084925 -2.608204 3.309556 -1.801336 -2.924007 0.103567 3.050627 2.009695 -2.516011 -1.731383
56830 -3.054797 0.548044 1.086870 -0.471046 -2.946292 1.817260 0.364116 0.044173 -0.585573 2.358994
63262 0.240135 -0.401406 0.613929 -2.825630 -0.820701 1.815784 3.440943 2.939601 -2.789364 0.259318
71607 -0.749321 -1.590349 2.272888 0.055179 -1.589647 -1.111111 1.826292 0.261626 -1.162739 0.901659
55609 -4.107145 -0.541790 1.409093 -0.853460 -1.688221 2.920372 1.621582 0.524824 0.384511 0.899756
58967 -1.785075 0.635344 -1.259014 -3.480435 -3.283377 -1.052392 1.645740 3.190986 -1.242238 -0.258239
64812 -1.588466 -0.091554 0.407447 -0.508961 -1.046787 0.703892 3.614919 0.549517 -2.021120 2.661720
59824 0.404562 -2.064951 -0.036077 -0.633476 -1.464783 0.158213 0.677943 1.876058 -0.268779 -0.176738
57413 -3.658123 1.227419 0.815073 -0.484518 -3.352426 1.465945 0.852752 -0.117092 -1.828515 2.689859
60881 0.594770 -0.169683 2.807752 -2.485273 -3.155355 0.350829 2.634402 2.444849 -2.320257 -0.126547
51426 -2.372279 -1.035187 1.134566 -0.222804 -0.077312 -1.409208 -1.498813 3.808208 0.031083 0.020392
54887 -3.414893 -3.274014 0.494587 -1.950671 -1.805451 1.933168 -0.671050 1.036496 -1.147700 -1.535199
57378 -3.378811 0.561676 2.018449 2.035655 -2.513372 0.691764 0.643379 0.574800 -3.483655 0.221074
64252 -1.697698 -0.076039 0.328293 -0.523148 -1.052653 1.624371 3.927556 0.581379 -2.388352 2.346200
56853 -1.462008 1.176005 3.090791 0.324265 -3.210294 0.007622 -1.674234 2.254987 -0.837868 1.425617
73449 -0.933167 -1.532233 0.817865 -0.801558 -0.793372 -0.258141 0.271092 -0.144666 -2.168710 3.698756
59998 -0.937607 -0.873016 -0.310292 -3.145610 -3.359819 -0.740110 2.148348 2.579111 -0.839910 -1.013829
57568 -1.973520 -0.295101 0.378984 -1.296116 -3.457737 0.685643 -1.293154 1.032394 -3.515289 -0.867740
52024 -2.778818 1.386882 1.412491 0.092283 0.571688 0.826898 0.743405 2.271717 -0.077145 2.334441
66689 0.386867 -2.232684 -0.569033 -0.437897 -1.066246 0.272747 0.764026 1.467348 -0.786791 0.105785
61034 0.765921 -0.896039 3.528504 -2.195507 -3.780921 0.873362 2.375363 1.992407 -1.810865 0.772240
63401 0.404589 -0.607461 0.459266 -2.904317 -0.885768 1.656263 3.752208 3.267636 -3.041555 0.475297
57330 -3.537364 1.146699 1.092640 -0.489639 -3.392873 1.566606 0.785460 -0.137427 -1.467940 2.695022
50238 -0.618633 -0.184213 1.731482 -0.001346 0.349953 1.424982 -0.259381 3.628901 -0.899350 3.901754
55853 -1.777411 -0.295030 2.027343 -0.132652 -0.383022 1.727586 -0.624489 1.481140 0.028432 -0.013713
72308 -0.546625 -1.905222 1.272210 -1.365382 -0.732459 -0.637718 1.262980 0.083634 -0.706496 1.668963
55832 -3.844615 -0.292208 1.519234 -0.996389 -2.034715 2.773932 1.182970 0.673417 0.657445 1.364611
55706 -3.466463 -1.763725 2.740957 1.425051 -1.393144 2.134318 0.533402 0.511629 -0.833735 0.093222
66290 -1.814863 -0.582329 0.454376 -0.867625 -1.223232 0.151127 3.267317 0.119915 -1.733000 3.243774
71295 -0.212691 -1.122920 4.301298 -1.420980 -1.656825 -1.301308 1.029212 1.238345 -2.075520 2.413762
58198 -2.921988 0.097436 -0.333454 0.872624 -1.954799 -0.500467 0.629406 1.307655 -3.489207 -1.239986
60204 -2.668570 -0.046141 -0.721319 -1.430507 -2.940202 1.351657 3.180702 1.844747 -0.005443 -0.393276
60483 -0.097078 -2.923656 0.607133 -0.336131 -2.876122 -0.892796 -0.519251 2.927386 -0.712711 -1.041747
54978 -3.400075 -2.699418 1.475244 0.663594 -0.511984 1.402376 0.589164 0.327253 -1.390198 -0.846423
60645 -0.340837 0.664697 1.532140 1.061470 -1.082869 0.146772 0.867642 2.009945 -0.909854 -0.231512
53117 -3.439588 0.860962 -0.203531 -1.073404 0.889395 0.899251 1.683990 1.381944 -1.868938 0.366422
58129 -2.616371 0.751081 0.255522 -0.208934 -2.020734 -1.358917 0.421912 0.978435 -4.453593 -0.323734
64244 -1.650277 -0.093233 0.179692 -0.555213 -1.017057 1.920589 4.188180 0.942864 -2.564257 2.238377
51823 -4.015021 -0.060428 -0.525129 0.388595 -0.114433 0.087569 2.230293 2.074125 0.707709 1.435771
68805 -2.280310 -1.283549 0.849767 -1.213963 -1.163201 -0.694048 2.619247 -0.144614 -1.155968 3.697226
62334 -1.856336 -0.107599 0.408285 -0.840321 -1.562711 3.405133 4.604150 1.754194 -2.101280 0.587441
58106 -3.900849 1.931579 -0.796306 -1.138035 -2.670429 0.095677 2.315324 0.882197 -2.861363 2.285939
58544 -3.218966 0.861036 -1.507790 -1.679521 -2.792130 -0.116569 2.072809 1.335574 -0.950344 1.129739
57363 -0.413988 0.885849 1.733825 -2.788318 -3.137213 -0.714812 -0.821168 1.333622 -3.031622 1.396242
61970 -0.602690 -1.136132 0.575178 0.255344 -1.727456 1.318521 2.093194 0.920794 -0.598265 -0.511245
66080 0.309122 -0.399560 -0.850870 -1.702103 -1.227789 -1.490019 1.691205 3.691649 -0.775056 1.139789
54956 -4.269119 -1.408129 0.537120 -1.368146 -1.026828 2.564206 1.632004 0.349165 0.070295 0.630447
75790 -1.966839 -1.700528 1.140789 -0.648527 -2.080750 -1.841302 1.776218 0.746899 0.537460 1.066400
61703 0.226278 -1.857287 2.337891 -2.187744 -3.508873 2.457218 3.098449 1.379237 -1.757959 0.777754
61088 -0.226775 -1.897521 1.029591 -3.889934 -2.684627 0.282992 2.465107 2.716615 -1.360518 -1.029903
55274 -4.110139 -0.832101 1.317119 -1.135376 -1.491508 2.967123 1.660655 0.598553 0.487267 0.748411
56006 -3.293957 0.213200 1.448580 -0.941755 -2.422349 2.400824 0.636243 0.662163 0.506354 1.889000
55979 -3.407225 0.040598 1.412431 -1.075506 -2.306985 2.520921 0.765053 0.703696 0.566247 1.740976
68579 -0.673548 -2.869022 0.512268 -3.492081 -0.365993 -1.732133 1.911364 1.805184 -2.593827 1.647020
71602 -0.615040 -2.829139 2.141186 -3.489734 -1.375110 -1.386570 1.821280 2.091446 -0.154287 2.363081
58597 -1.974519 1.323212 -0.790298 -3.632426 -2.776794 -1.143733 0.898000 2.440523 -2.416523 0.393130
59600 -2.821445 0.079231 -1.242694 -1.439210 -3.103811 0.949340 2.923614 1.980138 -0.019258 -0.164673
54895 -4.212941 -1.450031 0.456872 -1.355787 -0.983810 2.349710 1.638144 0.155447 -0.062066 0.610346
58229 -3.828864 1.853941 -1.167998 -1.479620 -2.654806 -0.136819 2.333750 1.140013 -2.629481 1.935704
56152 -3.278042 0.283971 1.339306 -0.846139 -2.729850 2.149132 0.525437 0.467049 0.335548 2.099399
56166 -3.310496 0.352957 1.264550 -0.744135 -2.900359 2.157727 0.409819 0.411036 0.146118 2.215093
69450 -0.692753 -2.982858 0.650560 -3.516524 -0.428845 -1.599397 1.770999 1.721619 -2.421968 1.644703
64420 0.552471 -0.728034 -0.351442 -2.692051 -1.157977 1.036454 3.904169 3.485027 -2.750026 1.312994
64622 0.603580 -0.828971 -0.451565 -2.747934 -1.225818 0.854775 3.843195 3.506598 -2.711272 1.383647
60364 -0.670095 -1.506057 0.269459 -3.576144 -3.065094 -0.489957 2.304109 2.774965 -0.979069 -1.175243
67208 -0.907225 -2.099006 -0.534385 -3.253515 -0.294698 -1.841003 2.138334 2.160567 -3.237502 1.580940
62002 0.083766 -1.361317 1.438541 -4.091415 -2.048745 1.899286 3.122341 3.079439 -2.174234 -0.576015
61712 -0.067225 -1.785432 1.220817 -4.032344 -2.598885 1.146062 2.806146 2.752667 -1.667058 -0.837331
64897 0.571525 -0.743233 -0.544818 -2.677144 -1.241370 0.592368 3.835032 3.622213 -2.646916 1.551097
60578 -0.491054 -1.621775 0.495906 -3.705222 -2.972905 -0.441080 2.372073 2.820313 -1.105784 -1.141797
75402 -0.466467 -0.905157 0.971519 -2.037774 -1.319647 -0.829813 0.892675 1.644812 0.663796 1.250898
67159 -0.878540 -1.876897 -0.622012 -3.200093 -0.326606 -1.880236 2.353285 2.280633 -3.299373 1.654849
58622 -1.968883 1.292399 -0.974886 -3.593114 -2.789630 -1.044653 1.093497 2.592606 -2.266104 0.379389
58798 -1.948275 1.085888 -1.137459 -3.769871 -3.006229 -1.041645 1.223197 3.048382 -1.877677 0.249838
77397 -0.439324 -0.416236 0.396820 -1.325356 -1.040487 -0.744855 0.556179 1.252336 0.497540 0.706946
61300 -0.180072 -1.916994 1.087887 -3.996825 -2.848042 0.593013 2.756125 2.778792 -1.563462 -0.988887
63037 0.209005 -0.757226 1.027104 -3.472810 -1.130978 1.978028 3.643642 3.232399 -2.908491 -0.034833
73969 -1.375553 -1.460316 1.226708 0.928585 -0.371611 -0.359671 0.281267 0.379604 -0.362233 2.085601
55056 -3.314652 -3.290797 1.910507 0.557166 -0.345665 1.842914 0.641287 0.538167 -1.629839 -0.873402
54690 -4.217702 -1.817518 1.079699 -0.114898 -0.051500 0.380937 0.570668 -0.266656 -0.815583 0.463964
64389 -0.194526 -2.220762 0.113142 -1.189042 -2.158398 -0.837579 3.543384 1.613587 -0.959725 0.395124
59220 -2.055107 -0.036379 -1.281075 -0.364257 -3.022832 -0.518125 -0.239762 2.660952 -1.881654 -1.492316
58262 -0.853399 2.003359 1.626353 -3.007687 -1.878846 0.357015 1.381590 1.770844 -2.593244 0.817827
71345 -0.030781 -1.261122 4.269383 -1.414599 -1.485088 -0.610379 1.308066 1.358931 -1.948400 2.779086
66691 0.582199 -0.371973 2.252742 -1.667816 -1.120361 0.704295 3.199170 2.064997 -2.937599 3.593766
67489 -0.106366 -0.119106 2.523125 -2.760385 -0.867957 -0.818300 2.555170 1.807461 -3.419715 3.464076
62322 0.329183 -0.147302 3.166363 -0.950431 -1.686863 2.982130 3.209870 2.945886 -1.364310 1.232409
71248 0.606036 -2.450628 0.671109 -1.003911 0.007800 -0.210550 0.633414 1.843807 -1.657320 0.047919
51108 -1.902382 -1.158416 -0.134111 0.295888 0.115802 -2.478152 0.126380 5.136789 -0.705780 0.529590
53361 -2.141975 -0.069936 0.462247 -0.273263 0.779299 0.502400 -0.305052 2.111152 -2.578880 -1.196020
59032 -0.733151 1.495438 0.990509 -3.530996 -2.547849 0.104398 1.725341 2.662003 -1.787590 0.011185
76507 -0.048309 -0.933469 1.491078 -0.601261 -0.988373 0.297077 1.023080 0.367632 0.004161 1.187340
70755 -0.956305 -0.959568 1.605266 0.449820 -0.993019 -2.697848 1.427621 1.731478 -1.563767 2.039411
57054 -0.820003 -0.890636 1.132883 0.955084 -3.446482 0.763021 -1.506095 1.373713 -4.750895 2.439590
56127 -2.057664 -1.756736 2.494233 0.935993 -1.851875 0.814996 -0.581435 0.193954 -0.323677 1.701757
66017 0.508756 -1.831948 -0.697703 -1.127713 -0.875568 -0.263083 2.324629 3.337104 -1.092673 3.433395
57089 -2.815932 -0.978628 0.904094 2.357555 -3.214156 -1.064607 -0.852746 1.393112 -1.462916 0.768633
50217 -0.885487 -1.048378 0.741620 1.600398 0.271250 0.417907 0.249230 1.456616 -0.968324 2.335095
52989 -3.410388 -1.317796 2.541709 1.772540 0.977260 -0.401782 1.172820 2.426246 -2.171511 -0.946964
54725 -3.722156 -2.708870 0.741021 -0.005387 -0.396985 0.939101 0.358062 -0.328053 -1.390540 0.130352
63808 0.836119 0.747496 0.496190 0.427744 -1.554411 1.189685 2.389377 3.903863 -3.139323 1.282522
54874 -0.936031 -1.328284 2.508941 -2.753522 -0.390106 1.615891 0.300810 0.406364 -1.371833 0.071491
70469 -1.502032 -2.205303 1.119170 -1.230286 -1.335573 -2.157330 2.036987 0.869211 -0.172514 1.913892
54504 -2.500676 -2.806798 0.340374 -1.878098 -0.733398 1.338551 -1.504584 0.034133 -2.846770 0.904655
72559 -0.374482 -1.864818 4.307698 -1.456804 -2.347287 0.820001 1.769964 1.133296 -0.793477 3.693021
72645 -0.339926 -2.008543 4.237340 -1.416555 -2.448534 0.984169 1.886325 1.086725 -0.783866 3.761632
60798 0.533492 -0.508065 3.355723 -2.391736 -3.483187 0.145177 2.995870 2.768621 -1.332270 0.411054
67094 0.081383 -0.042453 2.619308 -2.041517 -1.121601 0.166612 3.113578 1.803981 -3.191961 3.646897
58456 -2.089530 1.940049 0.333912 -1.016603 -2.987874 -1.431165 -0.375711 2.079106 -1.120205 1.128416
67503 -0.175840 -0.361327 3.191432 -2.526214 -0.799817 -1.138112 2.316689 1.685522 -3.258229 3.019733
51835 -0.614428 0.288358 1.850330 -1.213609 0.534654 0.417646 1.074936 1.999242 0.428573 0.455494
63275 0.237829 0.048385 3.269472 -1.074991 -1.128044 2.769309 3.754992 2.587120 -2.611451 1.465895
61035 0.553891 -1.024334 3.489143 -2.276938 -3.408164 0.696761 3.221056 1.797080 -2.236480 0.753248
61884 0.191881 -1.856003 2.719253 -2.130194 -3.019477 3.442589 3.390153 1.950681 -1.738306 0.740910
69944 -0.028902 -0.973694 3.785541 -2.135338 -1.085500 -1.097128 1.510632 1.423411 -2.602843 2.575025
73213 -0.168825 -1.654420 2.765768 -1.091521 -1.853654 0.924639 1.615376 0.639326 -0.215090 2.358597
74581 -1.448025 -0.662478 1.146666 -0.078001 -0.282262 -1.237656 -0.020186 -0.108442 -0.940157 1.805764
61858 0.425029 -2.630899 0.144419 -0.305517 -2.963446 -0.184918 0.561699 2.713401 0.050274 -0.362971
64177 0.231860 -1.726892 -0.020235 0.197285 -0.637042 3.037283 2.989253 2.607040 -1.829119 1.903790
59540 -0.734587 -0.887048 -0.568446 -0.932797 -2.984070 -0.189484 -0.232369 2.932232 0.210113 -0.848475
73018 -0.130774 -1.950323 3.213728 -1.288573 -2.138260 0.964806 1.727972 0.744549 -0.313156 2.698514
61317 0.501763 -1.747716 2.744061 -2.473378 -3.487778 1.922445 3.332347 1.377086 -2.246014 0.996874
70394 -0.039180 -1.031225 3.892316 -1.940104 -1.153656 -1.016590 1.387897 1.334829 -2.512652 2.486055
63317 0.277322 0.226988 3.141392 -1.172189 -0.936749 2.863467 3.718428 2.734604 -2.972962 1.510277
65320 0.794633 -0.506697 -0.198799 -0.131421 -0.940944 0.804442 1.288359 1.509588 -2.648397 1.222579
54387 -3.924662 -1.907408 -1.022151 -1.649576 -1.678646 0.097928 -1.568673 0.869197 -0.753418 1.862178
66950 0.217536 -0.147209 2.598331 -1.937042 -1.078538 0.392866 3.246154 1.956000 -3.310870 3.738732
56416 -0.910942 -1.708490 2.022517 -1.006467 -2.710586 2.711827 -1.784562 0.311557 -2.247946 2.319994
62226 0.308985 -0.580407 3.066342 -1.343445 -1.836182 3.272219 3.311963 2.856633 -1.278098 1.205375
71365 -0.124252 -1.270545 4.639549 -1.352512 -1.635207 -0.525875 1.472091 1.398957 -1.905632 2.919128
60505 0.384524 -0.197012 2.594021 -2.580147 -3.747739 0.115063 2.473915 2.951706 -1.277267 0.023388
61698 0.350228 -1.829129 2.570614 -2.471648 -3.380757 2.560654 3.412850 1.518209 -2.099878 0.796374
61447 0.478711 -1.799966 2.640382 -2.491390 -3.502151 2.092292 3.361084 1.401066 -2.265539 0.949479
73447 -1.873163 -2.580947 1.773915 1.029872 -0.293531 -0.163133 0.691316 0.173138 -1.081767 2.175280
62169 0.329040 -0.793503 3.055443 -1.468936 -1.894829 3.323130 3.212978 2.817216 -1.163669 1.186272
61989 0.248533 -1.790181 2.981656 -2.017369 -2.818294 3.757451 3.402436 2.256724 -1.587641 0.814617
63871 0.961716 -0.447232 2.672711 -1.162099 -1.263765 2.215205 3.039672 2.257536 -3.666039 2.718388
71854 -0.305909 -1.246189 4.692374 -1.193663 -2.115533 0.281598 1.667440 1.515303 -1.253496 3.701395
66828 0.399641 -0.120837 2.510865 -1.807723 -1.158007 0.629746 3.287853 2.079297 -3.247603 3.732795
61156 0.592378 -1.514397 3.089177 -2.416220 -3.423202 1.430763 3.216259 1.483750 -2.398799 0.945710
64125 1.025774 -0.657808 2.455111 -1.168568 -1.379893 1.914453 3.012434 2.142567 -3.386631 3.084166
51551 -2.867644 -0.423726 0.318584 1.156974 -0.210012 -0.888092 -0.140342 5.030612 -0.134272 -0.133233
58093 -1.751034 0.978096 1.630523 -2.087141 -2.620240 1.260894 -0.351473 2.049820 -2.893553 -1.731822
72788 -0.336173 -2.059285 3.863850 -1.469754 -2.262125 0.971759 1.833091 0.961483 -0.612446 3.530295
53068 -3.730799 -1.100017 1.696896 1.707541 0.294566 -0.961548 1.432783 2.257320 -3.169493 -1.703940
63402 0.388423 0.099964 3.261986 -1.154445 -0.745503 2.726627 3.660533 2.666546 -3.378601 1.687505
60995 0.568794 -0.819002 3.558406 -2.324837 -3.348346 0.461799 3.163323 2.099910 -1.916398 0.660900
52722 -1.079598 0.548240 2.113250 -2.123400 0.980430 0.396289 1.029295 1.770659 -0.391136 0.308147
57258 -1.230501 0.304747 0.656662 0.926534 -2.869168 0.434009 -1.247752 1.645761 -5.115259 1.397580
62136 0.245350 -1.124802 3.042873 -1.628964 -2.118798 3.543599 3.167364 2.660448 -1.165651 1.048592
62267 0.338200 -0.456480 3.104984 -1.206427 -1.705723 3.109577 3.244940 2.755210 -1.298031 1.322503
56232 -0.330890 -0.029012 3.691598 -1.460617 -1.823571 1.850815 -0.108655 1.092668 -1.463771 0.213910
63638 0.814323 -0.258719 2.895513 -1.151264 -0.958794 2.502603 3.218525 2.445671 -3.767199 2.276273
55694 -2.499013 -1.287649 2.335227 -0.415351 -1.223720 3.105113 -1.660397 1.336777 -0.573851 1.893462
76176 -0.862204 -2.607916 1.227019 -0.247763 -0.597945 -0.304202 -0.324929 1.425309 0.441621 1.737398
60271 0.142531 0.301223 1.781423 -2.747475 -3.718753 -0.005543 2.007088 3.048218 -1.187304 -0.152430
63323 0.308226 0.169113 3.128768 -1.277727 -0.876216 2.833343 3.771301 2.628328 -3.197683 1.581801
71448 -0.200194 -1.247499 4.754917 -1.223033 -1.789149 -0.359860 1.585450 1.397533 -1.892094 3.039144
62157 0.283912 -1.041868 3.019036 -1.533423 -1.992629 3.461475 3.138426 2.726278 -1.202350 1.061621
64302 1.109621 -0.770045 2.483610 -1.200037 -1.476418 1.726821 3.089859 2.165061 -3.373919 3.168628
60233 0.004145 0.513130 1.555246 -2.819042 -3.692394 -0.097855 1.874664 2.959857 -1.202425 -0.149790
52399 -3.717182 0.347414 2.403552 0.821936 0.750245 -1.381332 1.468843 1.654213 -1.096834 0.984304
55254 -3.103432 -2.816316 1.965713 1.196131 -0.761531 1.756686 0.805819 0.719075 -1.606673 -1.149024
59136 -0.410171 1.340944 0.824498 -3.607584 -3.068749 0.269474 1.766957 3.093463 -1.748561 0.127642
71449 -0.286474 -1.127926 4.983352 -1.051707 -1.886966 -0.147780 1.600313 1.528816 -1.761635 3.322144
67583 -0.175843 -0.512434 3.458125 -2.536974 -0.925195 -1.394312 2.008209 1.570946 -3.092932 2.821969
67501 -0.165296 -0.184854 3.161262 -2.602143 -0.717968 -1.028263 2.473210 1.864662 -3.390216 3.208226
63987 1.054050 -0.580500 2.519083 -1.188945 -1.300145 1.985720 3.097625 2.243490 -3.536944 2.969271
61113 0.639318 -1.365449 3.213816 -2.347670 -3.532791 1.255306 3.246044 1.618372 -2.478064 0.784850
67120 -0.078452 0.003202 2.716838 -2.314395 -1.050377 -0.145553 3.077873 1.813600 -3.283213 3.628342
56710 -1.546117 -0.323082 1.029604 1.298354 -2.473114 2.397711 -0.475663 0.823061 -2.848086 1.412336
55435 -2.852367 -1.296303 2.646032 0.024706 -0.684373 1.262962 -1.488590 2.321262 -0.489666 -0.945389
71441 0.300817 -2.878895 4.103661 -0.331293 -0.321120 -0.495573 0.203931 2.459519 -1.974168 1.292850
65420 0.189916 -1.063762 -0.762424 0.561320 -1.939586 -0.485460 3.024543 3.555358 -0.915666 1.462969
50639 -1.753088 -1.989445 -0.095786 2.133062 -0.784085 -1.163169 -0.434391 2.264075 -0.862112 1.548592
54156 -2.420575 -1.045309 -1.025129 -1.534628 -0.997038 0.454280 -2.007778 1.704312 -1.454243 0.932859
56376 -1.655515 -0.202752 0.705839 1.119316 -1.073957 2.008687 -0.881683 1.374171 -1.864171 0.448596
51466 -2.850711 -2.217178 0.078817 1.688989 0.158798 -1.503338 0.846634 2.666870 -0.114879 0.213781
50505 -0.922546 -2.054013 0.314161 0.212814 -0.236692 1.255304 0.455926 2.124985 1.123928 0.743723
61755 0.759933 -1.441007 0.484328 -1.721039 -1.973113 2.292582 0.527715 2.825090 -0.799743 -0.046858
58698 -1.414497 0.303111 -1.874633 -2.265154 -3.584199 0.320891 -0.389608 2.175003 -2.409061 0.515427
53610 -2.366478 -1.685784 0.412055 -0.009413 2.010966 0.215797 0.404086 1.577701 -3.639110 1.422405
50793 -1.926474 -2.342993 -0.010206 1.853790 -0.474753 -1.372302 -0.024049 2.283311 -0.612727 0.874548
